svm_type c_svc
kernel_type polynomial
degree 2
gamma 0.1111111111111111
coef0 0
nr_class 2
total_sv 168
rho -1.574411234145261
label 0 1
nr_sv 85 83
SV
243 0:0.134328 1:0.0420168 2:-0.831858 3:-0.63733 4:-0.699395 5:-0.735352 6:-0.704036 7:-1 8:-1 9:1 
243 0:0.0895522 1:0.0420168 2:-0.778761 3:-0.635913 4:-0.7115 5:-0.701119 6:-0.694071 7:-1 8:-1 9:1 
243 0:0.343284 1:0.092437 2:-0.752212 3:-0.571808 4:-0.740417 5:-0.612903 6:-0.584454 7:1 8:-1 9:-1 
243 0:0.0597015 1:-0.00840336 2:-0.80531 3:-0.71383 4:-0.776059 5:-0.788018 6:-0.733931 7:-1 8:-1 9:1 
243 0:0.238806 1:0.092437 2:-0.761062 3:-0.61785 4:-0.70881 5:-0.751152 6:-0.624315 7:-1 8:-1 9:1 
243 0:0.373134 1:0.176471 2:-0.743363 3:-0.516557 4:-0.634835 5:-0.55102 6:-0.59442 7:1 8:-1 9:-1 
243 0:0.179104 1:0.00840336 2:-0.823009 3:-0.664601 4:-0.776059 5:-0.789335 6:-0.63428 7:1 8:-1 9:-1 
243 0:0.0895522 1:-0.0420168 2:-0.823009 3:-0.681955 4:-0.748487 5:-0.772219 6:-0.743896 7:1 8:-1 9:-1 
243 0:-0.164179 1:-0.243697 2:-0.831858 3:-0.827519 4:-0.872898 5:-0.838051 6:-0.853513 7:-1 8:-1 9:1 
243 0:-0.0895522 1:-0.260504 2:-0.823009 3:-0.841686 4:-0.893746 5:-0.872284 6:-0.833582 7:-1 8:1 9:-1 
243 0:0.492537 1:0.243697 2:-0.752212 3:-0.389764 4:-0.472764 5:-0.403555 6:-0.604385 7:-1 8:-1 9:1 
243 0:0.223881 1:0.0252101 2:-0.769912 3:-0.61785 4:-0.65232 5:-0.748519 6:-0.684106 7:-1 8:-1 9:1 
243 0:0.179104 1:0.0252101 2:-0.787611 3:-0.663184 4:-0.718225 5:-0.723502 6:-0.704036 7:1 8:-1 9:-1 
243 0:0.358209 1:0.193277 2:-0.769912 3:-0.508057 4:-0.595158 5:-0.491771 6:-0.604385 7:1 8:-1 9:-1 
243 0:0.19403 1:0.12605 2:-0.787611 3:-0.625642 4:-0.71419 5:-0.697169 6:-0.664175 7:1 8:-1 9:-1 
243 0:0.19403 1:0.0756303 2:-0.778761 3:-0.591642 4:-0.62811 5:-0.777485 6:-0.694071 7:1 8:-1 9:-1 
243 0:0.358209 1:0.210084 2:-0.752212 3:-0.488578 4:-0.583726 5:-0.560237 6:-0.59442 7:-1 8:-1 9:1 
243 0:0.328358 1:0.193277 2:-0.725664 3:-0.486453 4:-0.609953 5:-0.518104 6:-0.534629 7:1 8:-1 9:-1 
243 0:0.268657 1:0.159664 2:-0.778761 3:-0.528599 4:-0.650303 5:-0.655036 6:-0.564524 7:1 8:-1 9:-1 
243 0:0.358209 1:0.210084 2:-0.79646 3:-0.582433 4:-0.687962 5:-0.583937 6:-0.644245 7:1 8:-1 9:-1 
101.67350152882763 0:0.238806 1:0.0756303 2:-0.761062 3:-0.567558 4:-0.6577 5:-0.732719 6:-0.564524 7:1 8:-1 9:-1 
243 0:0.0895522 1:-0.0420168 2:-0.814159 3:-0.716664 4:-0.825824 5:-0.749835 6:-0.674141 7:-1 8:-1 9:1 
73.594834228250051 0:0.313433 1:0.243697 2:-0.752212 3:-0.458828 4:-0.592468 5:-0.54707 6:-0.494768 7:1 8:-1 9:-1 
243 0:0.19403 1:0.0756303 2:-0.769912 3:-0.63485 4:-0.72226 5:-0.694536 6:-0.664175 7:-1 8:-1 9:1 
243 0:0.238806 1:0.092437 2:-0.778761 3:-0.612538 4:-0.671822 5:-0.718236 6:-0.656203 7:1 8:-1 9:-1 
243 0:0.149254 1:-0.00840336 2:-0.787611 3:-0.636621 4:-0.700067 5:-0.716919 6:-0.691081 7:-1 8:-1 9:1 
241.99054358086474 0:0.313433 1:0.176471 2:-0.769912 3:-0.489995 4:-0.570948 5:-0.656353 6:-0.584454 7:-1 8:-1 9:1 
39.259473642545736 0:0.940299 1:0.731092 2:-0.663717 3:0.804852 4:0.438467 5:0.270573 6:0.441953 7:-1 8:-1 9:1 
243 0:0.656716 1:0.428571 2:-0.734513 3:-0.255888 4:-0.474109 5:-0.116524 6:-0.434978 7:1 8:-1 9:-1 
204.50164362100057 0:0.298507 1:0.159664 2:-0.752212 3:-0.424473 4:-0.383995 5:-0.483871 6:-0.61435 7:1 8:-1 9:-1 
243 0:0.283582 1:0.193277 2:-0.734513 3:-0.545245 4:-0.618023 5:-0.619487 6:-0.584454 7:1 8:-1 9:-1 
243 0:0.268657 1:0.159664 2:-0.743363 3:-0.555162 4:-0.686617 5:-0.615537 6:-0.544594 7:1 8:-1 9:-1 
243 0:0.238806 1:0.0420168 2:-0.743363 3:-0.551974 4:-0.73302 5:-0.573404 6:-0.564524 7:1 8:-1 9:-1 
243 0:0.0149254 1:-0.092437 2:-0.814159 3:-0.732247 4:-0.786819 5:-0.794602 6:-0.763827 7:1 8:-1 9:-1 
243 0:0.223881 1:0.142857 2:-0.716814 3:-0.533912 4:-0.66846 5:-0.664253 6:-0.534629 7:1 8:-1 9:-1 
243 0:0.179104 1:0.0252101 2:-0.761062 3:-0.646538 4:-0.777404 5:-0.698486 6:-0.674141 7:-1 8:-1 9:1 
243 0:0.179104 1:-0.00840336 2:-0.743363 3:-0.63485 4:-0.749832 5:-0.676103 6:-0.644245 7:1 8:-1 9:-1 
243 0:0.104478 1:0.00840336 2:-0.734513 3:-0.657871 4:-0.757902 5:-0.672153 6:-0.694071 7:1 8:-1 9:-1 
243 0:0.0447761 1:0.092437 2:-0.814159 3:-0.770143 4:-0.828514 5:-0.794602 6:-0.803687 7:-1 8:1 9:-1 
243 0:0.0895522 1:-0.00840336 2:-0.761062 3:-0.693288 4:-0.757229 5:-0.782752 6:-0.753861 7:-1 8:1 9:-1 
243 0:-0.179104 1:-0.310924 2:-0.849558 3:-0.878165 4:-0.906523 5:-0.910467 6:-0.883408 7:-1 8:1 9:-1 
243 0:-0.268657 1:-0.361345 2:-0.858407 3:-0.889145 4:-0.915938 5:-0.915734 6:-0.903338 7:-1 8:1 9:-1 
243 0:0.149254 1:0.092437 2:-0.769912 3:-0.548787 4:-0.597848 5:-0.599737 6:-0.684106 7:1 8:-1 9:-1 
243 0:0.119403 1:0.0252101 2:-0.778761 3:-0.6476 4:-0.72764 5:-0.737986 6:-0.664175 7:1 8:-1 9:-1 
243 0:0.313433 1:0.243697 2:-0.761062 3:-0.497078 4:-0.642905 5:-0.57867 6:-0.504733 7:1 8:-1 9:-1 
243 0:0.223881 1:0.142857 2:-0.752212 3:-0.555516 4:-0.694015 5:-0.666886 6:-0.554559 7:-1 8:-1 9:1 
243 0:0.358209 1:0.277311 2:-0.725664 3:-0.506287 4:-0.613988 5:-0.581303 6:-0.59442 7:-1 8:-1 9:1 
243 0:0.253731 1:0.159664 2:-0.725664 3:-0.544891 4:-0.675857 5:-0.652403 6:-0.59442 7:1 8:-1 9:-1 
243 0:0.238806 1:0.142857 2:-0.752212 3:-0.612538 4:-0.70343 5:-0.665569 6:-0.704036 7:-1 8:-1 9:1 
243 0:0.179104 1:0.0252101 2:-0.769912 3:-0.66708 4:-0.756557 5:-0.701119 6:-0.704036 7:1 8:-1 9:-1 
86.045339371276668 0:0.41791 1:0.193277 2:-0.778761 3:-0.462724 4:-0.664425 5:-0.57077 6:-0.61435 7:-1 8:-1 9:1 
243 0:0.119403 1:-0.00840336 2:-0.823009 3:-0.741101 4:-0.804304 5:-0.734036 6:-0.763827 7:-1 8:-1 9:1 
243 0:-0.0746269 1:-0.142857 2:-0.823009 3:-0.799894 4:-0.858104 5:-0.803818 6:-0.803687 7:-1 8:-1 9:1 
243 0:0.298507 1:0.159664 2:-0.769912 3:-0.545599 4:-0.638198 5:-0.56287 6:-0.59442 7:-1 8:-1 9:1 
243 0:0.268657 1:0.092437 2:-0.725664 3:-0.5796 4:-0.71419 5:-0.577354 6:-0.604385 7:-1 8:-1 9:1 
243 0:0.283582 1:0.0756303 2:-0.681416 3:-0.599079 4:-0.688635 5:-0.607637 6:-0.664175 7:1 8:-1 9:-1 
243 0:0.238806 1:0.12605 2:-0.752212 3:-0.50062 4:-0.62542 5:-0.425938 6:-0.644245 7:-1 8:-1 9:1 
21.004109862136684 0:0.80597 1:0.764706 2:-0.646018 3:0.264388 4:-0.214526 5:0.191573 6:0.192825 7:1 8:-1 9:-1 
101.76303594470008 0:0.597015 1:0.478992 2:-0.672566 3:-0.216221 4:-0.503026 5:-0.175774 6:-0.345291 7:1 8:-1 9:-1 
243 0:0.223881 1:0.159664 2:-0.761062 3:-0.531787 4:-0.580363 5:-0.640553 6:-0.604385 7:-1 8:-1 9:1 
243 0:0.179104 1:0.0756303 2:-0.787611 3:-0.607225 4:-0.697377 5:-0.680053 6:-0.61435 7:-1 8:-1 9:1 
211.23020615062589 0:0.402985 1:0.243697 2:-0.761062 3:-0.403223 4:-0.499664 5:-0.448321 6:-0.534629 7:-1 8:-1 9:1 
243 0:0.149254 1:0.092437 2:-0.761062 3:-0.659996 4:-0.722932 5:-0.678736 6:-0.714001 7:-1 8:-1 9:1 
243 0:0.238806 1:0.226891 2:-0.778761 3:-0.570037 4:-0.679892 5:-0.623436 6:-0.564524 7:-1 8:-1 9:1 
243 0:0.0149254 1:-0.092437 2:-0.823009 3:-0.773685 4:-0.794889 5:-0.844635 6:-0.793722 7:-1 8:1 9:-1 
243 0:0.19403 1:0.0756303 2:-0.778761 3:-0.581371 4:-0.628783 5:-0.698486 6:-0.644245 7:-1 8:-1 9:1 
243 0:0.179104 1:0.0756303 2:-0.778761 3:-0.603683 4:-0.662408 5:-0.640553 6:-0.644245 7:1 8:-1 9:-1 
243 0:-0.0597015 1:-0.142857 2:-0.823009 3:-0.787498 4:-0.845326 5:-0.832785 6:-0.773792 7:-1 8:1 9:-1 
243 0:0.268657 1:0.142857 2:-0.752212 3:-0.494599 4:-0.575656 5:-0.537854 6:-0.524664 7:1 8:-1 9:-1 
243 0:0.313433 1:0.210084 2:-0.752212 3:-0.510182 4:-0.582381 5:-0.601053 6:-0.604385 7:1 8:-1 9:-1 
243 0:0.343284 1:0.294118 2:-0.734513 3:-0.40464 4:-0.505716 5:-0.478604 6:-0.524664 7:1 8:-1 9:-1 
103.88635661151953 0:0.402985 1:0.193277 2:-0.752212 3:-0.558704 4:-0.701412 5:-0.579987 6:-0.534629 7:-1 8:-1 9:1 
243 0:0.238806 1:0.092437 2:-0.787611 3:-0.626704 4:-0.710155 5:-0.635286 6:-0.694071 7:-1 8:1 9:-1 
243 0:0.238806 1:0.12605 2:-0.761062 3:-0.591642 4:-0.669805 5:-0.677419 6:-0.604385 7:1 8:-1 9:-1 
243 0:0.0895522 1:-0.0252101 2:-0.823009 3:-0.742164 4:-0.837256 5:-0.763002 6:-0.763827 7:-1 8:1 9:-1 
243 0:0.268657 1:0.193277 2:-0.734513 3:-0.532495 4:-0.62273 5:-0.640553 6:-0.564524 7:-1 8:-1 9:1 
243 0:-0.0746269 1:-0.159664 2:-0.831858 3:-0.822915 4:-0.878278 5:-0.856485 6:-0.823617 7:-1 8:1 9:-1 
243 0:-0.149254 1:-0.260504 2:-0.80531 3:-0.836019 4:-0.873571 5:-0.863068 6:-0.833582 7:-1 8:1 9:-1 
243 0:-0.0447761 1:-0.193277 2:-0.823009 3:-0.809102 4:-0.821116 5:-0.915734 6:-0.833582 7:-1 8:1 9:-1 
243 0:-1.11022e-16 1:-0.092437 2:-0.814159 3:-0.743935 4:-0.787492 5:-0.798552 6:-0.763827 7:1 8:-1 9:-1 
243 0:0.0149254 1:-0.142857 2:-0.80531 3:-0.791394 4:-0.835911 5:-0.851218 6:-0.804684 7:-1 8:1 9:-1 
243 0:-0.0895522 1:-0.226891 2:-0.823009 3:-0.812644 4:-0.846671 5:-0.840685 6:-0.853513 7:-1 8:-1 9:1 
243 0:0.313433 1:0.176471 2:-0.787611 3:-0.543829 4:-0.61197 5:-0.631336 6:-0.650224 7:1 8:-1 9:-1 
243 0:0.328358 1:0.176471 2:-0.787611 3:-0.557287 4:-0.645595 5:-0.628703 6:-0.642252 7:1 8:-1 9:-1 
130.48882871626816 0:0.477612 1:0.378151 2:-0.778761 3:-0.400035 4:-0.492266 5:-0.536537 6:-0.524664 7:-1 8:-1 9:1 
-243 0:0.358209 1:0.226891 2:-0.761062 3:-0.52187 4:-0.656355 5:-0.628703 6:-0.584454 7:1 8:-1 9:-1 
-118.26643728559888 0:0.0447761 1:-0.176471 2:-0.831858 3:-0.752435 4:-0.811701 5:-0.797235 6:-0.763827 7:-1 8:1 9:-1 
-243 0:0.19403 1:0.0588235 2:-0.778761 3:-0.640517 4:-0.710155 5:-0.705069 6:-0.674141 7:-1 8:-1 9:1 
-203.49361014153217 0:-0.164179 1:-0.243697 2:-0.849558 3:-0.795644 4:-0.873571 5:-0.897301 6:-0.773792 7:-1 8:1 9:-1 
-243 0:0.119403 1:-0.109244 2:-0.823009 3:-0.731539 4:-0.772024 5:-0.803818 6:-0.773792 7:-1 8:-1 9:1 
-243 0:0.41791 1:0.210084 2:-0.761062 3:-0.460599 4:-0.573638 5:-0.448321 6:-0.604385 7:1 8:-1 9:-1 
-243 0:0.164179 1:0.00840336 2:-0.814159 3:-0.661767 4:-0.696032 5:-0.674786 6:-0.753861 7:-1 8:-1 9:1 
-243 0:0.119403 1:0.00840336 2:-0.814159 3:-0.631309 4:-0.682582 5:-0.694536 6:-0.714001 7:1 8:-1 9:-1 
-243 0:0.119403 1:-0.0588235 2:-0.814159 3:-0.700372 4:-0.750504 5:-0.761685 6:-0.773792 7:1 8:-1 9:-1 
-239.05347655210107 0:-0.0597015 1:-0.193277 2:-0.831858 3:-0.857624 4:-0.883658 5:-0.882818 6:-0.853513 7:-1 8:1 9:-1 
-243 0:0.179104 1:0.0588235 2:-0.787611 3:-0.590933 4:-0.607263 5:-0.403555 6:-0.723966 7:-1 8:-1 9:1 
-243 0:0.149254 1:0.0756303 2:-0.787611 3:-0.675226 4:-0.762609 5:-0.711652 6:-0.704036 7:1 8:-1 9:-1 
-243 0:0.343284 1:0.243697 2:-0.716814 3:-0.409598 4:-0.524546 5:-0.439105 6:-0.514699 7:1 8:-1 9:-1 
-58.972027021654377 0:-0.0298507 1:-0.109244 2:-0.831858 3:-0.786789 4:-0.821789 5:-0.843318 6:-0.803687 7:-1 8:-1 9:1 
-243 0:-0.0149254 1:-0.142857 2:-0.823009 3:-0.728706 4:-0.768662 5:-0.760369 6:-0.783757 7:-1 8:-1 9:1 
-243 0:0.268657 1:0.159664 2:-0.752212 3:-0.532849 4:-0.656355 5:-0.539171 6:-0.564524 7:1 8:-1 9:-1 
-243 0:0.104478 1:-0.00840336 2:-0.787611 3:-0.687976 4:-0.743107 5:-0.749835 6:-0.733931 7:-1 8:-1 9:1 
-243 0:0.179104 1:0.109244 2:-0.761062 3:-0.58385 4:-0.629455 5:-0.685319 6:-0.664175 7:-1 8:-1 9:1 
-243 0:0.283582 1:0.159664 2:-0.778761 3:-0.588454 4:-0.670477 5:-0.658986 6:-0.65421 7:1 8:-1 9:-1 
-243 0:0.119403 1:-0.0252101 2:-0.814159 3:-0.709934 4:-0.759247 5:-0.705069 6:-0.733931 7:-1 8:-1 9:1 
-243 0:0.283582 1:0.176471 2:-0.80531 3:-0.558704 4:-0.591123 5:-0.579987 6:-0.65421 7:-1 8:-1 9:1 
-243 0:0.0447761 1:-0.092437 2:-0.831858 3:-0.73331 4:-0.772024 5:-0.790652 6:-0.803687 7:-1 8:-1 9:1 
-243 0:0.328358 1:0.159664 2:-0.787611 3:-0.590579 4:-0.686617 5:-0.655036 6:-0.63428 7:-1 8:-1 9:1 
-243 0:0.19403 1:0.00840336 2:-0.787611 3:-0.661413 4:-0.686617 5:-0.734036 6:-0.733931 7:-1 8:-1 9:1 
-243 0:0.552239 1:0.411765 2:-0.752212 3:-0.332743 4:-0.513786 5:-0.503621 6:-0.375187 7:-1 8:-1 9:1 
-243 0:0.492537 1:0.310924 2:-0.752212 3:-0.334868 4:-0.484196 5:-0.337722 6:-0.434978 7:1 8:-1 9:-1 
-243 0:0.149254 1:0.00840336 2:-0.769912 3:-0.635205 4:-0.704775 5:-0.701119 6:-0.674141 7:1 8:-1 9:-1 
-243 0:0.373134 1:0.277311 2:-0.734513 3:-0.48787 4:-0.639543 5:-0.636603 6:-0.504733 7:-1 8:-1 9:1 
-243 0:0.179104 1:0.0756303 2:-0.769912 3:-0.630954 4:-0.713517 5:-0.65372 6:-0.714001 7:-1 8:-1 9:1 
-243 0:0.179104 1:0.0588235 2:-0.769912 3:-0.631309 4:-0.731002 5:-0.651086 6:-0.674141 7:-1 8:-1 9:1 
-243 0:0.298507 1:0.12605 2:-0.761062 3:-0.552683 4:-0.690652 5:-0.529954 6:-0.604385 7:1 8:-1 9:-1 
-243 0:0.0746269 1:0.142857 2:-0.814159 3:-0.743935 4:-0.818426 5:-0.743252 6:-0.743896 7:1 8:-1 9:-1 
-243 0:0.253731 1:0.142857 2:-0.778761 3:-0.61785 4:-0.68191 5:-0.647136 6:-0.694071 7:-1 8:-1 9:1 
-243 0:0.164179 1:0.0252101 2:-0.814159 3:-0.696122 4:-0.770007 5:-0.719552 6:-0.65421 7:-1 8:-1 9:1 
-243 0:0.0447761 1:-0.00840336 2:-0.814159 3:-0.723039 4:-0.826496 5:-0.835418 6:-0.674141 7:-1 8:-1 9:1 
-243 0:0.447761 1:0.260504 2:-0.734513 3:-0.376306 4:-0.535306 5:-0.548387 6:-0.385152 7:1 8:-1 9:-1 
-243 0:0.179104 1:0.0420168 2:-0.814159 3:-0.703559 4:-0.782112 5:-0.728769 6:-0.723966 7:1 8:-1 9:-1 
-243 0:0.0895522 1:-0.00840336 2:-0.778761 3:-0.715601 4:-0.765972 5:-0.835418 6:-0.745889 7:1 8:-1 9:-1 
-243 0:0.0447761 1:-0.0756303 2:-0.79646 3:-0.71383 4:-0.781439 5:-0.788018 6:-0.732935 7:1 8:-1 9:-1 
-243 0:-0.0149254 1:-0.092437 2:-0.80531 3:-0.749602 4:-0.798252 5:-0.835418 6:-0.769806 7:1 8:-1 9:-1 
-243 0:0.58209 1:0.495798 2:-0.672566 3:-0.209138 4:-0.370545 5:-0.320606 6:-0.335326 7:1 8:-1 9:-1 
-243 0:0.358209 1:0.142857 2:-0.743363 3:-0.452453 4:-0.587088 5:-0.556287 6:-0.494768 7:1 8:-1 9:-1 
-243 0:0.343284 1:0.277311 2:-0.725664 3:-0.247034 4:-0.34768 5:-0.387755 6:-0.434978 7:-1 8:-1 9:1 
-243 0:0.328358 1:0.176471 2:-0.79646 3:-0.451744 4:-0.570948 5:-0.515471 6:-0.564524 7:1 8:-1 9:-1 
-243 0:0.522388 1:0.361345 2:-0.699115 3:-0.340889 4:-0.510424 5:-0.287689 6:-0.425012 7:1 8:-1 9:-1 
-243 0:0.119403 1:-0.0252101 2:-0.787611 3:-0.706393 4:-0.778749 5:-0.751152 6:-0.733931 7:1 8:-1 9:-1 
-243 0:0.0298507 1:-0.0588235 2:-0.79646 3:-0.740039 4:-0.771352 5:-0.814352 6:-0.763827 7:-1 8:-1 9:1 
-243 0:0.0895522 1:-0.0420168 2:-0.752212 3:-0.659996 4:-0.751177 5:-0.715602 6:-0.684106 7:1 8:-1 9:-1 
-243 0:-0.0298507 1:-0.176471 2:-0.80531 3:-0.778289 4:-0.854741 5:-0.824885 6:-0.763827 7:-1 8:1 9:-1 
-243 0:0.0746269 1:-0.0420168 2:-0.80531 3:-0.732601 4:-0.800269 5:-0.777485 6:-0.763827 7:-1 8:1 9:-1 
-165.69316806248975 0:-0.119403 1:-0.243697 2:-0.831858 3:-0.813352 4:-0.837256 5:-0.864384 6:-0.843548 7:-1 8:1 9:-1 
-243 0:0.268657 1:0.176471 2:-0.752212 3:-0.565433 4:-0.677202 5:-0.644503 6:-0.59442 7:-1 8:-1 9:1 
-243 0:0.119403 1:-0.00840336 2:-0.769912 3:-0.67558 4:-0.767317 5:-0.709019 6:-0.733931 7:-1 8:-1 9:1 
-243 0:-0.0149254 1:-0.176471 2:-0.787611 3:-0.771914 4:-0.831204 5:-0.816985 6:-0.783757 7:-1 8:1 9:-1 
-9.4472364121458199 0:0.0149254 1:-0.159664 2:-0.769912 3:-0.774748 4:-0.825824 5:-0.802502 6:-0.793722 7:1 8:-1 9:-1 
-243 0:0.104478 1:-0.092437 2:-0.778761 3:-0.679122 4:-0.761264 5:-0.705069 6:-0.723966 7:1 8:-1 9:-1 
-243 0:0.238806 1:0.0756303 2:-0.734513 3:-0.593767 4:-0.705447 5:-0.62212 6:-0.624315 7:1 8:-1 9:-1 
-243 0:0.268657 1:0.0588235 2:-0.761062 3:-0.682663 4:-0.770679 5:-0.723502 6:-0.694071 7:1 8:-1 9:-1 
-243 0:0.179104 1:0.12605 2:-0.734513 3:-0.551266 4:-0.707465 5:-0.768269 6:-0.494768 7:-1 8:-1 9:1 
-243 0:-0.149254 1:-0.226891 2:-0.814159 3:-0.830352 4:-0.878278 5:-0.851218 6:-0.853513 7:-1 8:1 9:-1 
-243 0:0.134328 1:0.00840336 2:-0.787611 3:-0.683018 4:-0.763282 5:-0.727452 6:-0.704036 7:1 8:-1 9:-1 
-243 0:0.0895522 1:0.00840336 2:-0.778761 3:-0.663184 4:-0.823806 5:-0.786702 6:-0.624315 7:-1 8:-1 9:1 
-243 0:0.119403 1:0.00840336 2:-0.80531 3:-0.676642 4:-0.740417 5:-0.824885 6:-0.723966 7:-1 8:1 9:-1 
-243 0:0.149254 1:0.243697 2:-0.725664 3:-0.472995 4:-0.597176 5:-0.601053 6:-0.524664 7:1 8:-1 9:-1 
-243 0:0.343284 1:0.226891 2:-0.716814 3:-0.465911 4:-0.632145 5:-0.545754 6:-0.454908 7:1 8:-1 9:-1 
-243 0:-0.104478 1:-0.159664 2:-0.79646 3:-0.809102 4:-0.877606 5:-0.806452 6:-0.823617 7:-1 8:1 9:-1 
-243 0:0.597015 1:0.478992 2:-0.672566 3:-0.1847 4:-0.28043 5:-0.23634 6:-0.514699 7:1 8:-1 9:-1 
-243 0:0.507463 1:0.344538 2:-0.699115 3:-0.34266 4:-0.452589 5:-0.319289 6:-0.564524 7:-1 8:-1 9:1 
-243 0:0.134328 1:0.0588235 2:-0.814159 3:-0.652559 4:-0.710827 5:-0.673469 6:-0.733931 7:1 8:-1 9:-1 
-187.31170458464982 0:0.164179 1:0.0756303 2:-0.787611 3:-0.667788 4:-0.702757 5:-0.687953 6:-0.723966 7:-1 8:1 9:-1 
-243 0:-0.134328 1:-0.193277 2:-0.831858 3:-0.824332 4:-0.856759 5:-0.857801 6:-0.843548 7:-1 8:1 9:-1 
-243 0:0.179104 1:0.092437 2:-0.743363 3:-0.585975 4:-0.680565 5:-0.62212 6:-0.63428 7:-1 8:-1 9:1 
-243 0:0.223881 1:0.0420168 2:-0.787611 3:-0.584558 4:-0.638198 5:-0.656353 6:-0.65421 7:1 8:-1 9:-1 
-243 0:0.313433 1:0.344538 2:-0.761062 3:-0.489641 4:-0.604573 5:-0.573404 6:-0.534629 7:-1 8:-1 9:1 
-243 0:0.0746269 1:-0.092437 2:-0.80531 3:-0.694351 4:-0.761937 5:-0.741935 6:-0.694071 7:1 8:-1 9:-1 
-243 0:0.0895522 1:-0.0252101 2:-0.787611 3:-0.742872 4:-0.778749 5:-0.782752 6:-0.783757 7:-1 8:1 9:-1 
-243 0:0.119403 1:0.00840336 2:-0.79646 3:-0.662121 4:-0.715535 5:-0.726136 6:-0.704036 7:-1 8:-1 9:1 
-243 0:0.477612 1:0.294118 2:-0.831858 3:-0.415619 4:-0.544721 5:-0.418038 6:-0.534629 7:-1 8:-1 9:1 
-243 0:0.447761 1:0.344538 2:-0.663717 3:-0.495661 4:-0.620713 5:-0.661619 6:-0.454908 7:1 8:-1 9:-1 
-90.20021319784405 0:-0.149254 1:-0.243697 2:-0.814159 3:-0.860457 4:-0.907868 5:-0.882818 6:-0.843548 7:-1 8:1 9:-1 
-243 0:0.358209 1:0.294118 2:-0.761062 3:-0.446432 4:-0.580363 5:-0.549704 6:-0.567514 7:1 8:-1 9:-1 
-243 0:0.0597015 1:-0.0420168 2:-0.787611 3:-0.748185 4:-0.798252 5:-0.831468 6:-0.794718 7:-1 8:1 9:-1 
-243 0:0.164179 1:-0.00840336 2:-0.79646 3:-0.703205 4:-0.790854 5:-0.761685 6:-0.734928 7:1 8:-1 9:-1 
