svm_type c_svc
kernel_type polynomial
degree 2
gamma 0.1111111111111111
coef0 0
nr_class 2
total_sv 664
rho -2.634117547722278
label 0 1
nr_sv 333 331
SV
243 0:0.027027 1:0.0420168 2:-0.831858 3:-0.63733 4:-0.699395 5:-0.735352 6:-0.704036 7:-1 8:-1 9:1 
243 0:-0.0135135 1:0.0420168 2:-0.778761 3:-0.635913 4:-0.7115 5:-0.701119 6:-0.694071 7:-1 8:-1 9:1 
243 0:-0.0405405 1:-0.00840336 2:-0.80531 3:-0.71383 4:-0.776059 5:-0.788018 6:-0.733931 7:-1 8:-1 9:1 
243 0:0.121622 1:0.092437 2:-0.761062 3:-0.61785 4:-0.70881 5:-0.751152 6:-0.624315 7:-1 8:-1 9:1 
243 0:0.243243 1:0.176471 2:-0.743363 3:-0.516557 4:-0.634835 5:-0.55102 6:-0.59442 7:1 8:-1 9:-1 
243 0:-0.0135135 1:-0.0420168 2:-0.823009 3:-0.681955 4:-0.748487 5:-0.772219 6:-0.743896 7:1 8:-1 9:-1 
243 0:-0.243243 1:-0.243697 2:-0.831858 3:-0.827519 4:-0.872898 5:-0.838051 6:-0.853513 7:-1 8:-1 9:1 
243 0:-0.175676 1:-0.260504 2:-0.823009 3:-0.841686 4:-0.893746 5:-0.872284 6:-0.833582 7:-1 8:1 9:-1 
243 0:0.324324 1:0.294118 2:-0.725664 3:-0.335931 4:-0.426362 5:-0.437788 6:-0.464873 7:1 8:-1 9:-1 
243 0:0.459459 1:0.428571 2:-0.707965 3:-0.178679 4:-0.311365 5:-0.20869 6:-0.395117 7:1 8:-1 9:-1 
243 0:0.351351 1:0.243697 2:-0.752212 3:-0.389764 4:-0.472764 5:-0.403555 6:-0.604385 7:-1 8:-1 9:1 
63.079926238683321 0:0.256757 1:0.411765 2:-0.725664 3:-0.139366 4:-0.287828 5:-0.191573 6:-0.325361 7:1 8:-1 9:-1 
243 0:0.351351 1:0.310924 2:-0.761062 3:-0.375952 4:-0.488904 5:-0.465438 6:-0.484803 7:1 8:-1 9:-1 
243 0:0.283784 1:0.243697 2:-0.761062 3:-0.398265 4:-0.514459 5:-0.485188 6:-0.464873 7:1 8:-1 9:-1 
243 0:0.108108 1:0.0252101 2:-0.769912 3:-0.61785 4:-0.65232 5:-0.748519 6:-0.684106 7:-1 8:-1 9:1 
243 0:0.0675676 1:0.0252101 2:-0.787611 3:-0.663184 4:-0.718225 5:-0.723502 6:-0.704036 7:1 8:-1 9:-1 
243 0:0.22973 1:0.193277 2:-0.769912 3:-0.508057 4:-0.595158 5:-0.491771 6:-0.604385 7:1 8:-1 9:-1 
243 0:0.0810811 1:0.12605 2:-0.787611 3:-0.625642 4:-0.71419 5:-0.697169 6:-0.664175 7:1 8:-1 9:-1 
243 0:0.432432 1:0.327731 2:-0.654867 3:-0.223659 4:-0.354405 5:-0.238973 6:-0.375187 7:1 8:-1 9:-1 
243 0:0.418919 1:0.411765 2:-0.734513 3:-0.287763 4:-0.406187 5:-0.419355 6:-0.444943 7:1 8:-1 9:-1 
243 0:0.324324 1:0.243697 2:-0.761062 3:-0.426598 4:-0.542703 5:-0.560237 6:-0.494768 7:-1 8:-1 9:1 
243 0:0.0810811 1:0.0756303 2:-0.778761 3:-0.591642 4:-0.62811 5:-0.777485 6:-0.694071 7:1 8:-1 9:-1 
243 0:0.22973 1:0.210084 2:-0.752212 3:-0.488578 4:-0.583726 5:-0.560237 6:-0.59442 7:-1 8:-1 9:1 
243 0:0.202703 1:0.193277 2:-0.725664 3:-0.486453 4:-0.609953 5:-0.518104 6:-0.534629 7:1 8:-1 9:-1 
243 0:0.27027 1:0.193277 2:-0.778761 3:-0.510182 4:-0.60121 5:-0.616853 6:-0.584454 7:1 8:-1 9:-1 
243 0:0.22973 1:0.210084 2:-0.79646 3:-0.582433 4:-0.687962 5:-0.583937 6:-0.644245 7:1 8:-1 9:-1 
243 0:0.121622 1:0.0756303 2:-0.761062 3:-0.567558 4:-0.6577 5:-0.732719 6:-0.564524 7:1 8:-1 9:-1 
243 0:0.324324 1:0.310924 2:-0.725664 3:-0.416327 4:-0.542703 5:-0.460171 6:-0.509716 7:1 8:-1 9:-1 
243 0:0.310811 1:0.344538 2:-0.725664 3:-0.436869 4:-0.544048 5:-0.500987 6:-0.519681 7:-1 8:-1 9:1 
243 0:0.0810811 1:0.0756303 2:-0.769912 3:-0.63485 4:-0.72226 5:-0.694536 6:-0.664175 7:-1 8:-1 9:1 
243 0:0.121622 1:0.092437 2:-0.778761 3:-0.612538 4:-0.671822 5:-0.718236 6:-0.656203 7:1 8:-1 9:-1 
243 0:0.0405405 1:-0.00840336 2:-0.787611 3:-0.636621 4:-0.700067 5:-0.716919 6:-0.691081 7:-1 8:-1 9:1 
243 0:0.189189 1:0.176471 2:-0.769912 3:-0.489995 4:-0.570948 5:-0.656353 6:-0.584454 7:-1 8:-1 9:1 
243 0:0.432432 1:0.445378 2:-0.716814 3:-0.135824 4:-0.2885 5:-0.323239 6:-0.444943 7:1 8:-1 9:-1 
32.50682779949171 0:0.756757 1:0.697479 2:-0.628319 3:0.515141 4:-0.127102 5:0.0467413 6:1 7:1 8:-1 9:-1 
243 0:0.310811 1:0.327731 2:-0.716814 3:-0.27643 4:-0.424344 5:-0.295589 6:-0.405082 7:1 8:-1 9:-1 
243 0:0.5 1:0.428571 2:-0.716814 3:-0.152116 4:-0.293208 5:-0.119157 6:-0.375187 7:1 8:-1 9:-1 
243 0:0.175676 1:0.159664 2:-0.752212 3:-0.424473 4:-0.383995 5:-0.483871 6:-0.61435 7:1 8:-1 9:-1 
243 0:0.148649 1:0.176471 2:-0.725664 3:-0.454578 4:-0.535978 5:-0.597103 6:-0.514699 7:-1 8:-1 9:1 
243 0:0.162162 1:0.193277 2:-0.734513 3:-0.545245 4:-0.618023 5:-0.619487 6:-0.584454 7:1 8:-1 9:-1 
243 0:0.310811 1:0.327731 2:-0.716814 3:-0.348327 4:-0.420309 5:-0.532587 6:-0.484803 7:-1 8:-1 9:1 
243 0:-0.0810811 1:-0.092437 2:-0.814159 3:-0.732247 4:-0.786819 5:-0.794602 6:-0.763827 7:1 8:-1 9:-1 
243 0:0.0675676 1:0.0252101 2:-0.761062 3:-0.646538 4:-0.777404 5:-0.698486 6:-0.674141 7:-1 8:-1 9:1 
243 1:0.00840336 2:-0.734513 3:-0.657871 4:-0.757902 5:-0.672153 6:-0.694071 7:1 8:-1 9:-1 
243 0:-0.0540541 1:0.092437 2:-0.814159 3:-0.770143 4:-0.828514 5:-0.794602 6:-0.803687 7:-1 8:1 9:-1 
243 0:-0.0135135 1:-0.00840336 2:-0.761062 3:-0.693288 4:-0.757229 5:-0.782752 6:-0.753861 7:-1 8:1 9:-1 
243 0:-0.256757 1:-0.310924 2:-0.849558 3:-0.878165 4:-0.906523 5:-0.910467 6:-0.883408 7:-1 8:1 9:-1 
243 0:-0.337838 1:-0.361345 2:-0.858407 3:-0.889145 4:-0.915938 5:-0.915734 6:-0.903338 7:-1 8:1 9:-1 
243 0:0.405405 1:0.344538 2:-0.725664 3:-0.250221 4:-0.310693 5:-0.431205 6:-0.405082 7:1 8:-1 9:-1 
243 0:0.391892 1:0.411765 2:-0.716814 3:-0.221179 4:-0.359112 5:-0.328506 6:-0.415047 7:1 8:-1 9:-1 
243 0:0.256757 1:0.411765 2:-0.725664 3:-0.344077 4:-0.471419 5:-0.490454 6:-0.484803 7:1 8:-1 9:-1 
243 0:0.337838 1:0.294118 2:-0.778761 3:-0.388702 4:-0.507061 5:-0.54707 6:-0.464873 7:1 8:-1 9:-1 
243 0:0.0405405 1:0.092437 2:-0.769912 3:-0.548787 4:-0.597848 5:-0.599737 6:-0.684106 7:1 8:-1 9:-1 
243 0:0.202703 1:0.327731 2:-0.734513 3:-0.367452 4:-0.515131 5:-0.511521 6:-0.534629 7:-1 8:-1 9:1 
243 0:0.0135135 1:0.0252101 2:-0.778761 3:-0.6476 4:-0.72764 5:-0.737986 6:-0.664175 7:1 8:-1 9:-1 
243 0:0.22973 1:0.277311 2:-0.725664 3:-0.506287 4:-0.613988 5:-0.581303 6:-0.59442 7:-1 8:-1 9:1 
243 0:0.121622 1:0.142857 2:-0.752212 3:-0.612538 4:-0.70343 5:-0.665569 6:-0.704036 7:-1 8:-1 9:1 
243 0:0.0675676 1:0.0252101 2:-0.769912 3:-0.66708 4:-0.756557 5:-0.701119 6:-0.704036 7:1 8:-1 9:-1 
243 0:0.283784 1:0.193277 2:-0.778761 3:-0.462724 4:-0.664425 5:-0.57077 6:-0.61435 7:-1 8:-1 9:1 
243 0:0.337838 1:0.277311 2:-0.743363 3:-0.360014 4:-0.473436 5:-0.381172 6:-0.454908 7:-1 8:-1 9:1 
243 0:0.310811 1:0.294118 2:-0.752212 3:-0.313618 4:-0.405514 5:-0.462804 6:-0.474838 7:-1 8:-1 9:1 
243 0:0.0135135 1:-0.00840336 2:-0.823009 3:-0.741101 4:-0.804304 5:-0.734036 6:-0.763827 7:-1 8:-1 9:1 
243 0:-0.162162 1:-0.142857 2:-0.823009 3:-0.799894 4:-0.858104 5:-0.803818 6:-0.803687 7:-1 8:-1 9:1 
243 0:0.175676 1:0.159664 2:-0.769912 3:-0.545599 4:-0.638198 5:-0.56287 6:-0.59442 7:-1 8:-1 9:1 
243 0:0.472973 1:0.411765 2:-0.672566 3:-0.0628652 4:-0.188299 5:-0.14549 6:-0.345291 7:-1 8:-1 9:1 
243 0:0.351351 1:0.344538 2:-0.743363 3:-0.1762 4:-0.219906 5:-0.402238 6:-0.405082 7:-1 8:-1 9:1 
243 0:0.472973 1:0.378151 2:-0.672566 3:-0.0989906 4:-0.222596 5:-0.194207 6:-0.365222 7:-1 8:-1 9:1 
243 0:0.162162 1:0.0756303 2:-0.681416 3:-0.599079 4:-0.688635 5:-0.607637 6:-0.664175 7:1 8:-1 9:-1 
243 0:0.121622 1:0.12605 2:-0.752212 3:-0.50062 4:-0.62542 5:-0.425938 6:-0.644245 7:-1 8:-1 9:1 
243 0:0.445946 1:0.428571 2:-0.734513 3:-0.151408 4:-0.248151 5:-0.354839 6:-0.444943 7:-1 8:-1 9:1 
243 0:0.337838 1:0.361345 2:-0.752212 3:-0.326014 4:-0.400807 5:-0.457538 6:-0.514699 7:-1 8:-1 9:1 
243 0:0.364865 1:0.378151 2:-0.743363 3:-0.373118 4:-0.408877 5:-0.565504 6:-0.474838 7:-1 8:-1 9:1 
243 0:0.364865 1:0.344538 2:-0.787611 3:-0.241013 4:-0.357095 5:-0.281106 6:-0.474838 7:1 8:-1 9:-1 
243 0:0.5 1:0.462185 2:-0.663717 3:-0.167345 4:-0.337592 5:-0.115207 6:-0.434978 7:-1 8:-1 9:1 
243 0:0.378378 1:0.327731 2:-0.716814 3:-0.238534 4:-0.329523 5:-0.24424 6:-0.504733 7:1 8:-1 9:-1 
243 0:0.243243 1:0.226891 2:-0.743363 3:-0.441119 4:-0.557498 5:-0.503621 6:-0.504733 7:-1 8:-1 9:1 
243 0:0.108108 1:0.159664 2:-0.761062 3:-0.531787 4:-0.580363 5:-0.640553 6:-0.604385 7:-1 8:-1 9:1 
243 0:0.0675676 1:0.0756303 2:-0.787611 3:-0.607225 4:-0.697377 5:-0.680053 6:-0.61435 7:-1 8:-1 9:1 
243 0:0.27027 1:0.243697 2:-0.761062 3:-0.403223 4:-0.499664 5:-0.448321 6:-0.534629 7:-1 8:-1 9:1 
243 0:0.256757 1:0.226891 2:-0.725664 3:-0.478307 4:-0.528581 5:-0.601053 6:-0.574489 7:-1 8:-1 9:1 
243 0:0.0405405 1:0.092437 2:-0.761062 3:-0.659996 4:-0.722932 5:-0.678736 6:-0.714001 7:-1 8:-1 9:1 
243 0:0.121622 1:0.226891 2:-0.778761 3:-0.570037 4:-0.679892 5:-0.623436 6:-0.564524 7:-1 8:-1 9:1 
243 0:-0.0810811 1:-0.092437 2:-0.823009 3:-0.773685 4:-0.794889 5:-0.844635 6:-0.793722 7:-1 8:1 9:-1 
243 0:0.0810811 1:0.0756303 2:-0.778761 3:-0.581371 4:-0.628783 5:-0.698486 6:-0.644245 7:-1 8:-1 9:1 
243 0:0.0675676 1:0.0756303 2:-0.778761 3:-0.603683 4:-0.662408 5:-0.640553 6:-0.644245 7:1 8:-1 9:-1 
243 0:-0.148649 1:-0.142857 2:-0.823009 3:-0.787498 4:-0.845326 5:-0.832785 6:-0.773792 7:-1 8:1 9:-1 
243 0:0.148649 1:0.142857 2:-0.752212 3:-0.494599 4:-0.575656 5:-0.537854 6:-0.524664 7:1 8:-1 9:-1 
243 0:0.189189 1:0.210084 2:-0.752212 3:-0.510182 4:-0.582381 5:-0.601053 6:-0.604385 7:1 8:-1 9:-1 
243 0:0.216216 1:0.294118 2:-0.734513 3:-0.40464 4:-0.505716 5:-0.478604 6:-0.524664 7:1 8:-1 9:-1 
200.37023647722506 0:0.391892 1:0.445378 2:-0.787611 3:-0.356118 4:-0.476799 5:-0.522054 6:-0.425012 7:-1 8:-1 9:1 
243 0:0.297297 1:0.327731 2:-0.743363 3:-0.353285 4:-0.463349 5:-0.353522 6:-0.434978 7:-1 8:-1 9:1 
243 0:0.378378 1:0.411765 2:-0.787611 3:-0.332035 4:-0.449899 5:-0.444371 6:-0.444943 7:-1 8:-1 9:1 
243 0:0.364865 1:0.361345 2:-0.787611 3:-0.29768 4:-0.379287 5:-0.373272 6:-0.444943 7:1 8:-1 9:-1 
243 0:0.27027 1:0.294118 2:-0.787611 3:-0.394723 4:-0.533961 5:-0.549704 6:-0.524664 7:-1 8:-1 9:1 
243 0:0.121622 1:0.092437 2:-0.787611 3:-0.626704 4:-0.710155 5:-0.635286 6:-0.694071 7:-1 8:1 9:-1 
243 0:0.121622 1:0.12605 2:-0.761062 3:-0.591642 4:-0.669805 5:-0.677419 6:-0.604385 7:1 8:-1 9:-1 
243 0:-0.0135135 1:-0.0252101 2:-0.823009 3:-0.742164 4:-0.837256 5:-0.763002 6:-0.763827 7:-1 8:1 9:-1 
243 0:0.148649 1:0.193277 2:-0.734513 3:-0.532495 4:-0.62273 5:-0.640553 6:-0.564524 7:-1 8:-1 9:1 
243 0:-0.162162 1:-0.159664 2:-0.831858 3:-0.822915 4:-0.878278 5:-0.856485 6:-0.823617 7:-1 8:1 9:-1 
243 0:-0.22973 1:-0.260504 2:-0.80531 3:-0.836019 4:-0.873571 5:-0.863068 6:-0.833582 7:-1 8:1 9:-1 
243 0:-0.135135 1:-0.193277 2:-0.823009 3:-0.809102 4:-0.821116 5:-0.915734 6:-0.833582 7:-1 8:1 9:-1 
243 0:-0.0945946 1:-0.092437 2:-0.814159 3:-0.743935 4:-0.787492 5:-0.798552 6:-0.763827 7:1 8:-1 9:-1 
243 0:0.324324 1:0.344538 2:-0.734513 3:-0.420223 4:-0.510424 5:-0.58262 6:-0.484803 7:1 8:-1 9:-1 
243 0:0.324324 1:0.462185 2:-0.725664 3:-0.346556 4:-0.456624 5:-0.423305 6:-0.494768 7:1 8:-1 9:-1 
243 0:0.540541 1:0.663866 2:-0.690265 3:-0.0865947 4:-0.234701 5:-0.199473 6:-0.345291 7:1 8:-1 9:-1 
243 0:0.351351 1:0.394958 2:-0.752212 3:-0.408181 4:-0.532616 5:-0.544437 6:-0.524664 7:-1 8:-1 9:1 
243 0:-0.0810811 1:-0.142857 2:-0.80531 3:-0.791394 4:-0.835911 5:-0.851218 6:-0.804684 7:-1 8:1 9:-1 
243 0:0.216216 1:0.193277 2:-0.761062 3:-0.499557 4:-0.607263 5:-0.599737 6:-0.534629 7:1 8:-1 9:-1 
243 0:-0.175676 1:-0.226891 2:-0.823009 3:-0.812644 4:-0.846671 5:-0.840685 6:-0.853513 7:-1 8:-1 9:1 
243 0:0.189189 1:0.176471 2:-0.787611 3:-0.543829 4:-0.61197 5:-0.631336 6:-0.650224 7:1 8:-1 9:-1 
243 0:0.202703 1:0.176471 2:-0.787611 3:-0.557287 4:-0.645595 5:-0.628703 6:-0.642252 7:1 8:-1 9:-1 
243 0:0.337838 1:0.378151 2:-0.778761 3:-0.400035 4:-0.492266 5:-0.536537 6:-0.524664 7:-1 8:-1 9:1 
243 0:0.364865 1:0.361345 2:-0.734513 3:-0.296264 4:-0.424344 5:-0.443055 6:-0.484803 7:1 8:-1 9:-1 
243 0:0.256757 1:0.226891 2:-0.761062 3:-0.429432 4:-0.532616 5:-0.528637 6:-0.534629 7:-1 8:-1 9:1 
243 0:0.391892 1:0.344538 2:-0.743363 3:-0.241367 4:-0.362475 5:-0.500987 6:-0.434978 7:-1 8:-1 9:1 
134.06174189368855 0:0.432432 1:0.445378 2:-0.707965 3:-0.285638 4:-0.416274 5:-0.450955 6:-0.405082 7:1 8:-1 9:-1 
243 0:0.364865 1:0.294118 2:-0.681416 3:-0.396494 4:-0.508406 5:-0.57077 6:-0.514699 7:1 8:-1 9:-1 
146.24228496762555 0:0.418919 1:0.394958 2:-0.690265 3:-0.2187 4:-0.347007 5:-0.350889 6:-0.375187 7:-1 8:-1 9:1 
243 0:0.310811 1:0.277311 2:-0.681416 3:-0.371702 4:-0.517149 5:-0.464121 6:-0.504733 7:-1 8:-1 9:1 
243 0:0.027027 1:-0.00840336 2:-0.752212 3:-0.634142 4:-0.704102 5:-0.668203 6:-0.733931 7:1 8:-1 9:-1 
243 0:0.337838 1:0.327731 2:-0.716814 3:-0.313264 4:-0.468056 5:-0.329822 6:-0.484803 7:1 8:-1 9:-1 
243 0:0.22973 1:0.226891 2:-0.672566 3:-0.468744 4:-0.599193 5:-0.59052 6:-0.59442 7:-1 8:1 9:-1 
243 0:0.0405405 1:0.00840336 2:-0.769912 3:-0.676997 4:-0.743107 5:-0.723502 6:-0.743896 7:1 8:-1 9:-1 
243 0:0.0675676 1:0.0588235 2:-0.787611 3:-0.668142 4:-0.753194 5:-0.723502 6:-0.694071 7:-1 8:1 9:-1 
243 0:0.0675676 1:0.0588235 2:-0.752212 3:-0.648309 4:-0.71957 5:-0.678736 6:-0.714001 7:-1 8:1 9:-1 
243 0:0.0540541 1:0.092437 2:-0.769912 3:-0.67983 4:-0.746469 5:-0.790652 6:-0.694071 7:-1 8:1 9:-1 
243 0:0.202703 1:0.176471 2:-0.752212 3:-0.59235 4:-0.732347 5:-0.619487 6:-0.646238 7:-1 8:1 9:-1 
243 0:-0.189189 1:-0.210084 2:-0.79646 3:-0.809811 4:-0.876261 5:-0.827518 6:-0.826607 7:1 8:-1 9:-1 
243 0:0.148649 1:0.0756303 2:-0.752212 3:-0.573579 4:-0.675857 5:-0.628703 6:-0.646238 7:1 8:-1 9:-1 
243 0:-0.0135135 1:0.00840336 2:-0.79646 3:-0.707455 4:-0.788164 5:-0.757735 6:-0.741903 7:1 8:-1 9:-1 
243 0:-0.0675676 1:-0.092437 2:-0.79646 3:-0.79706 4:-0.866846 5:-0.851218 6:-0.776781 7:-1 8:-1 9:1 
243 0:-0.175676 1:-0.210084 2:-0.814159 3:-0.819373 4:-0.868191 5:-0.867018 6:-0.833582 7:1 8:-1 9:-1 
243 0:-0.337838 1:-0.361345 2:-0.867257 3:-0.89127 4:-0.922663 5:-0.901251 6:-0.905331 7:-1 8:-1 9:1 
243 0:0.324324 1:0.327731 2:-0.716814 3:-0.438286 4:-0.516476 5:-0.591837 6:-0.544594 7:1 8:-1 9:-1 
191.26001478369474 0:0.554054 1:0.546218 2:-0.716814 3:-0.177971 4:-0.335575 5:-0.466754 6:-0.345291 7:-1 8:1 9:-1 
8.5295102245194823 0:0.459459 1:0.462185 2:-0.725664 3:-0.301222 4:-0.443847 5:-0.487821 6:-0.315396 7:-1 8:1 9:-1 
243 0:0.310811 1:0.294118 2:-0.707965 3:-0.434744 4:-0.550773 5:-0.544437 6:-0.504733 7:-1 8:1 9:-1 
243 0:0.0945946 1:0.0588235 2:-0.787611 3:-0.63733 4:-0.72226 5:-0.656353 6:-0.694071 7:-1 8:1 9:-1 
243 0:0.148649 1:0.109244 2:-0.734513 3:-0.557641 4:-0.650975 5:-0.56287 6:-0.684106 7:-1 8:1 9:-1 
243 0:0.202703 1:0.159664 2:-0.743363 3:-0.533912 4:-0.642233 5:-0.723502 6:-0.564524 7:-1 8:1 9:-1 
243 0:0.189189 1:0.159664 2:-0.787611 3:-0.53462 4:-0.637525 5:-0.529954 6:-0.664175 7:-1 8:1 9:-1 
243 0:0.0810811 1:-0.00840336 2:-0.79646 3:-0.681247 4:-0.770679 5:-0.759052 6:-0.694071 7:1 8:-1 9:-1 
243 0:0.27027 1:0.210084 2:-0.734513 3:-0.481849 4:-0.62542 5:-0.572087 6:-0.567514 7:1 8:-1 9:-1 
243 0:0.0675676 1:0.00840336 2:-0.769912 3:-0.614308 4:-0.731675 5:-0.669519 6:-0.63428 7:1 8:-1 9:-1 
243 0:-0.256757 1:-0.327731 2:-0.884956 3:-0.874624 4:-0.906523 5:-0.899934 6:-0.883408 7:-1 8:-1 9:1 
243 0:0.108108 1:0.00840336 2:-0.769912 3:-0.589871 4:-0.671822 5:-0.65372 6:-0.668161 7:-1 8:1 9:-1 
243 0:-0.027027 1:-0.0756303 2:-0.778761 3:-0.71383 4:-0.774714 5:-0.723502 6:-0.811659 7:-1 8:1 9:-1 
243 0:-0.0945946 1:-0.109244 2:-0.79646 3:-0.727289 4:-0.779422 5:-0.736669 6:-0.806677 7:1 8:-1 9:-1 
243 0:0.0135135 1:-0.00840336 2:-0.752212 3:-0.665663 4:-0.718897 5:-0.714286 6:-0.748879 7:-1 8:1 9:-1 
243 0:0.0135135 1:-0.0252101 2:-0.761062 3:-0.687622 4:-0.735709 5:-0.770902 6:-0.768809 7:-1 8:1 9:-1 
243 0:0.445946 1:0.411765 2:-0.734513 3:-0.316805 4:-0.443847 5:-0.474654 6:-0.315396 7:-1 8:1 9:-1 
243 0:0.445946 1:0.411765 2:-0.752212 3:-0.198867 4:-0.291863 5:-0.381172 6:-0.305431 7:1 8:-1 9:-1 
243 0:0.310811 1:0.243697 2:-0.752212 3:-0.351514 4:-0.462677 5:-0.481238 6:-0.484803 7:-1 8:1 9:-1 
243 0:0.378378 1:0.277311 2:-0.690265 3:-0.305826 4:-0.455952 5:-0.344305 6:-0.464873 7:1 8:-1 9:-1 
243 0:0.364865 1:0.310924 2:-0.734513 3:-0.373473 4:-0.486214 5:-0.450955 6:-0.494768 7:-1 8:1 9:-1 
243 0:0.283784 1:0.243697 2:-0.734513 3:-0.430494 4:-0.495629 5:-0.55102 6:-0.514699 7:-1 8:1 9:-1 
243 0:0.0405405 1:0.00840336 2:-0.752212 3:-0.651851 4:-0.710827 5:-0.651086 6:-0.773792 7:-1 8:1 9:-1 
243 0:-0.0945946 1:-0.159664 2:-0.823009 3:-0.744289 4:-0.767989 5:-0.830151 6:-0.783757 7:1 8:-1 9:-1 
243 0:0.135135 1:0.12605 2:-0.778761 3:-0.530016 4:-0.619368 5:-0.57472 6:-0.604385 7:-1 8:1 9:-1 
243 0:0.202703 1:0.243697 2:-0.699115 3:-0.519391 4:-0.624748 5:-0.54312 6:-0.61435 7:-1 8:1 9:-1 
243 0:0.0135135 1:-0.0588235 2:-0.752212 3:-0.673809 4:-0.780767 5:-0.801185 6:-0.704036 7:-1 8:-1 9:1 
243 0:-0.108108 1:-0.142857 2:-0.787611 3:-0.782185 4:-0.815736 5:-0.848585 6:-0.813652 7:1 8:-1 9:-1 
243 0:-0.162162 1:-0.12605 2:-0.80531 3:-0.798831 4:-0.836584 5:-0.834101 6:-0.836572 7:1 8:-1 9:-1 
243 0:-0.148649 1:-0.176471 2:-0.823009 3:-0.813706 4:-0.856759 5:-0.843318 6:-0.830593 7:1 8:-1 9:-1 
243 0:0.0675676 1:-0.0252101 2:-0.79646 3:-0.655392 4:-0.731675 5:-0.716919 6:-0.672147 7:-1 8:1 9:-1 
243 0:0.189189 1:0.12605 2:-0.752212 3:-0.607933 4:-0.732347 5:-0.702436 6:-0.557549 7:-1 8:1 9:-1 
243 0:-0.0540541 1:-0.0252101 2:-0.778761 3:-0.700372 4:-0.786147 5:-0.791968 6:-0.696064 7:-1 8:1 9:-1 
243 0:0.108108 1:0.0588235 2:-0.769912 3:-0.676997 4:-0.757902 5:-0.703752 6:-0.731938 7:-1 8:1 9:-1 
243 0:-0.202703 1:-0.226891 2:-0.823009 3:-0.839915 4:-0.910558 5:-0.823568 6:-0.841555 7:-1 8:-1 9:1 
243 0:-0.256757 1:-0.294118 2:-0.840708 3:-0.875686 4:-0.924008 5:-0.890718 6:-0.867464 7:-1 8:-1 9:1 
184.77901374672399 0:-0.0135135 1:-0.0252101 2:-0.699115 3:-0.71206 4:-0.799597 5:-0.784068 6:-0.701046 7:1 8:-1 9:-1 
243 0:0.135135 1:0.0588235 2:-0.778761 3:-0.663184 4:-0.752522 5:-0.815668 6:-0.666168 7:-1 8:1 9:-1 
243 0:0.0135135 1:-0.00840336 2:-0.743363 3:-0.629538 4:-0.720915 5:-0.737986 6:-0.673144 7:-1 8:1 9:-1 
243 0:-0.0810811 1:-0.0252101 2:-0.761062 3:-0.727643 4:-0.829186 5:-0.816985 6:-0.708022 7:-1 8:-1 9:1 
243 0:0.0675676 1:0.00840336 2:-0.752212 3:-0.694705 4:-0.796234 5:-0.751152 6:-0.70005 7:1 8:-1 9:-1 
243 0:-0.27027 1:-0.327731 2:-0.858407 3:-0.881707 4:-0.920646 5:-0.889401 6:-0.895366 7:-1 8:-1 9:1 
243 0:0.148649 1:0.109244 2:-0.79646 3:-0.520808 4:-0.605245 5:-0.63792 6:-0.61435 7:1 8:-1 9:-1 
243 0:0.148649 1:0.109244 2:-0.814159 3:-0.648663 4:-0.759919 5:-0.712969 6:-0.664175 7:1 8:-1 9:-1 
243 0:0.0540541 1:0.0252101 2:-0.814159 3:-0.648663 4:-0.713517 5:-0.695853 6:-0.723966 7:-1 8:1 9:-1 
243 0:-0.0540541 1:-0.0588235 2:-0.831858 3:-0.773331 4:-0.839274 5:-0.840685 6:-0.753861 7:1 8:-1 9:-1 
243 0:-0.283784 1:-0.294118 2:-0.849558 3:-0.871436 4:-0.897781 5:-0.880184 6:-0.873443 7:-1 8:-1 9:1 
243 0:0.0405405 1:0.0420168 2:-0.778761 3:-0.670622 4:-0.746469 5:-0.752469 6:-0.688092 7:-1 8:-1 9:1 
243 0:-0.0135135 1:-0.0252101 2:-0.787611 3:-0.656455 4:-0.737054 5:-0.716919 6:-0.684106 7:-1 8:1 9:-1 
243 0:0.175676 1:0.159664 2:-0.769912 3:-0.595183 4:-0.706792 5:-0.64187 6:-0.61435 7:1 8:-1 9:-1 
243 1:-0.0756303 2:-0.787611 3:-0.755622 4:-0.839946 5:-0.780118 6:-0.793722 7:-1 8:1 9:-1 
243 0:0.0405405 1:-0.00840336 2:-0.787611 3:-0.655392 4:-0.741762 5:-0.724819 6:-0.694071 7:-1 8:1 9:-1 
243 0:0.0675676 1:-0.00840336 2:-0.769912 3:-0.67133 4:-0.753194 5:-0.740619 6:-0.714001 7:-1 8:1 9:-1 
243 0:-0.202703 1:-0.243697 2:-0.80531 3:-0.838144 4:-0.874243 5:-0.878868 6:-0.853513 7:1 8:-1 9:-1 
243 0:-0.0810811 1:-0.0420168 2:-0.769912 3:-0.741101 4:-0.804976 5:-0.768269 6:-0.763827 7:1 8:-1 9:-1 
243 0:-0.175676 1:-0.159664 2:-0.814159 3:-0.802373 4:-0.860794 5:-0.839368 6:-0.823617 7:1 8:-1 9:-1 
243 0:0.0135135 1:0.00840336 2:-0.787611 3:-0.70958 4:-0.847344 5:-0.826201 6:-0.684106 7:-1 8:1 9:-1 
243 0:-0.135135 1:-0.193277 2:-0.831858 3:-0.842394 4:-0.896436 5:-0.859118 6:-0.843548 7:1 8:-1 9:-1 
243 0:0.027027 1:-0.00840336 2:-0.787611 3:-0.658934 4:-0.757229 5:-0.62212 6:-0.684106 7:-1 8:-1 9:1 
243 0:0.121622 1:0.12605 2:-0.734513 3:-0.595537 4:-0.698722 5:-0.674786 6:-0.664175 7:-1 8:-1 9:1 
243 0:0.108108 1:0.0588235 2:-0.752212 3:-0.595892 4:-0.726967 5:-0.628703 6:-0.65421 7:-1 8:-1 9:1 
243 0:0.175676 1:0.159664 2:-0.752212 3:-0.539933 4:-0.67115 5:-0.56287 6:-0.63428 7:-1 8:-1 9:1 
243 0:0.243243 1:0.159664 2:-0.734513 3:-0.431557 4:-0.551446 5:-0.441738 6:-0.584454 7:1 8:-1 9:-1 
243 0:0.216216 1:0.159664 2:-0.699115 3:-0.483974 4:-0.626093 5:-0.460171 6:-0.61435 7:-1 8:-1 9:1 
243 0:0.148649 1:0.0756303 2:-0.734513 3:-0.550912 4:-0.66039 5:-0.619487 6:-0.624315 7:-1 8:-1 9:1 
243 0:-0.0405405 1:-0.092437 2:-0.79646 3:-0.727643 4:-0.802959 5:-0.720869 6:-0.783757 7:1 8:-1 9:-1 
243 0:-0.0405405 1:-0.0588235 2:-0.787611 3:-0.686913 4:-0.792872 5:-0.699803 6:-0.723966 7:1 8:-1 9:-1 
243 0:-0.135135 1:-0.12605 2:-0.814159 3:-0.752435 4:-0.841964 5:-0.761685 6:-0.764823 7:1 8:-1 9:-1 
243 0:-0.162162 1:-0.226891 2:-0.814159 3:-0.795644 4:-0.837929 5:-0.820935 6:-0.8286 7:-1 8:-1 9:1 
243 0:0.0945946 1:0.109244 2:-0.761062 3:-0.621746 4:-0.746469 5:-0.627386 6:-0.658196 7:1 8:-1 9:-1 
243 0:-0.135135 1:-0.193277 2:-0.79646 3:-0.777581 4:-0.839274 5:-0.844635 6:-0.78276 7:-1 8:-1 9:1 
243 0:-0.0810811 1:-0.092437 2:-0.752212 3:-0.706039 4:-0.794889 5:-0.734036 6:-0.715994 7:-1 8:-1 9:1 
243 0:-0.351351 1:-0.344538 2:-0.840708 3:-0.857624 4:-0.918628 5:-0.903884 6:-0.844544 7:-1 8:-1 9:1 
243 0:-0.27027 1:-0.310924 2:-0.840708 3:-0.85479 4:-0.897108 5:-0.886768 6:-0.850523 7:1 8:-1 9:-1 
243 0:-0.22973 1:-0.193277 2:-0.769912 3:-0.80556 4:-0.880968 5:-0.851218 6:-0.802691 7:-1 8:-1 9:1 
243 0:-0.189189 1:-0.176471 2:-0.823009 3:-0.826811 4:-0.861466 5:-0.876234 6:-0.837569 7:-1 8:-1 9:1 
243 0:0.0540541 1:0.0252101 2:-0.858407 3:-0.655746 4:-0.744452 5:-0.672153 6:-0.694071 7:-1 8:-1 9:1 
243 0:-0.121622 1:-0.159664 2:-0.849558 3:-0.791039 4:-0.856086 5:-0.815668 6:-0.803687 7:-1 8:-1 9:1 
243 0:0.0945946 1:0.0756303 2:-0.814159 3:-0.629538 4:-0.707465 5:-0.686636 6:-0.694071 7:1 8:-1 9:-1 
243 0:0.202703 1:0.159664 2:-0.787611 3:-0.539933 4:-0.650303 5:-0.470704 6:-0.674141 7:1 8:-1 9:-1 
243 0:0.27027 1:0.226891 2:-0.769912 3:-0.378785 4:-0.498319 5:-0.55497 6:-0.544594 7:-1 8:-1 9:1 
243 0:0.175676 1:0.12605 2:-0.778761 3:-0.536391 4:-0.648958 5:-0.518104 6:-0.65421 7:-1 8:-1 9:1 
7.1471669081253797 0:0.202703 1:0.109244 2:-0.79646 3:-0.527537 4:-0.680565 5:-0.548387 6:-0.59442 7:-1 8:-1 9:1 
243 0:0.202703 1:0.176471 2:-0.778761 3:-0.545599 4:-0.67653 5:-0.544437 6:-0.584454 7:1 8:-1 9:-1 
243 1:-0.0252101 2:-0.840708 3:-0.732601 4:-0.809011 5:-0.806452 6:-0.753861 7:-1 8:-1 9:1 
243 0:0.243243 1:0.226891 2:-0.734513 3:-0.479724 4:-0.626765 5:-0.511521 6:-0.574489 7:1 8:-1 9:-1 
243 0:0.108108 1:0.00840336 2:-0.787611 3:-0.613954 4:-0.712172 5:-0.576037 6:-0.723966 7:-1 8:-1 9:1 
243 0:0.472973 1:0.512605 2:-0.672566 3:0.0805738 4:-0.073302 5:-0.0322581 6:-0.305431 7:-1 8:-1 9:1 
243 0:0.337838 1:0.294118 2:-0.725664 3:-0.210908 4:-0.359112 5:-0.391705 6:-0.464873 7:-1 8:-1 9:1 
243 0:0.121622 1:0.092437 2:-0.752212 3:-0.462724 4:-0.671822 5:-0.561554 6:-0.63428 7:-1 8:-1 9:1 
243 0:0.121622 1:0.092437 2:-0.752212 3:-0.549141 4:-0.691325 5:-0.627386 6:-0.61435 7:-1 8:-1 9:1 
243 0:0.108108 1:0.0756303 2:-0.761062 3:-0.607579 4:-0.742434 5:-0.655036 6:-0.667165 7:1 8:-1 9:-1 
243 0:0.22973 1:0.193277 2:-0.725664 3:-0.494599 4:-0.624075 5:-0.557604 6:-0.576482 7:-1 8:-1 9:1 
243 0:-0.0540541 1:-0.0252101 2:-0.80531 3:-0.74181 4:-0.833221 5:-0.788018 6:-0.769806 7:1 8:-1 9:-1 
243 0:0.0135135 1:-0.0588235 2:-0.778761 3:-0.754206 4:-0.841291 5:-0.723502 6:-0.773792 7:-1 8:-1 9:1 
243 0:0.189189 1:0.092437 2:-0.761062 3:-0.532849 4:-0.61466 5:-0.449638 6:-0.694071 7:-1 8:-1 9:1 
243 0:-0.0135135 1:-0.0420168 2:-0.769912 3:-0.704268 4:-0.795562 5:-0.697169 6:-0.743896 7:1 8:-1 9:-1 
243 0:0.256757 1:0.226891 2:-0.752212 3:-0.431202 4:-0.505044 5:-0.54707 6:-0.584454 7:1 8:-1 9:-1 
243 0:0.27027 1:0.294118 2:-0.761062 3:-0.350806 4:-0.424344 5:-0.470704 6:-0.529646 7:1 8:-1 9:-1 
243 0:0.324324 1:0.327731 2:-0.725664 3:-0.25093 4:-0.364492 5:-0.369322 6:-0.474838 7:-1 8:-1 9:1 
243 0:0.337838 1:0.277311 2:-0.769912 3:-0.467682 4:-0.531944 5:-0.539171 6:-0.616343 7:-1 8:-1 9:1 
243 0:0.405405 1:0.428571 2:-0.734513 3:-0.215158 4:-0.33154 5:-0.400922 6:-0.345291 7:1 8:-1 9:-1 
243 0:0.405405 1:0.378151 2:-0.752212 3:-0.213033 4:-0.305313 5:-0.358789 6:-0.395117 7:1 8:-1 9:-1 
243 0:0.418919 1:0.411765 2:-0.725664 3:-0.144324 4:-0.123067 5:-0.55497 6:-0.364225 7:1 8:-1 9:-1 
243 0:0.418919 1:0.478992 2:-0.690265 3:-0.0876572 4:-0.186281 5:-0.274523 6:-0.316393 7:-1 8:-1 9:1 
243 0:0.459459 1:0.495798 2:-0.690265 3:-0.0260315 4:-0.250168 5:-0.132324 6:-0.421026 7:1 8:-1 9:-1 
243 0:0.459459 1:0.563025 2:-0.734513 3:-0.0497609 4:-0.155346 5:-0.315339 6:-0.315396 7:1 8:-1 9:-1 
243 0:0.472973 1:0.512605 2:-0.716814 3:-0.0292191 4:-0.156019 5:-0.277156 6:-0.26856 7:1 8:-1 9:-1 
243 0:0.513514 1:0.495798 2:-0.734513 3:-0.0267399 4:-0.127774 5:-0.0506912 6:-0.385152 7:1 8:-1 9:-1 
206.81272872916139 0:0.581081 1:0.563025 2:-0.663717 3:0.102178 4:0.0141224 5:-0.21659 6:-0.20578 7:-1 8:-1 9:1 
62.853554504647789 0:0.635135 1:0.697479 2:-0.654867 3:0.257659 4:0.156691 5:-0.15339 6:-0.175884 7:1 8:-1 9:-1 
243 0:0.648649 1:0.630252 2:-0.716814 3:0.179741 4:0.119032 5:-0.00724161 6:-0.0563029 7:1 8:-1 9:-1 
243 0:0.216216 1:0.159664 2:-0.752212 3:-0.482557 4:-0.552118 5:-0.58657 6:-0.664175 7:-1 8:-1 9:1 
243 0:0.337838 1:0.327731 2:-0.725664 3:-0.15495 4:-0.244788 5:-0.325872 6:-0.415047 7:-1 8:-1 9:1 
243 0:0.364865 1:0.344538 2:-0.734513 3:-0.284576 4:-0.330868 5:-0.444371 6:-0.437967 7:-1 8:-1 9:1 
243 0:0.391892 1:0.378151 2:-0.725664 3:-0.196742 4:-0.295898 5:-0.312706 6:-0.454908 7:-1 8:-1 9:1 
243 0:0.405405 1:0.394958 2:-0.725664 3:-0.207367 4:-0.394082 5:-0.532587 6:-0.694071 7:1 8:-1 9:-1 
243 0:0.405405 1:0.327731 2:-0.734513 3:-0.212325 4:-0.212508 5:-0.420671 6:-0.504733 7:1 8:-1 9:-1 
243 0:0.432432 1:0.394958 2:-0.707965 3:-0.129095 4:-0.190989 5:-0.311389 6:-0.42003 7:-1 8:-1 9:1 
243 0:0.445946 1:0.394958 2:-0.734513 3:-0.177971 4:-0.241426 5:-0.321922 6:-0.388142 7:-1 8:-1 9:1 
243 0:0.445946 1:0.411765 2:-0.725664 3:-0.174075 4:-0.256221 5:-0.371955 6:-0.346288 7:-1 8:-1 9:1 
243 0:0.486486 1:0.428571 2:-0.699115 3:-0.0433859 4:-0.162744 5:-0.269256 6:-0.275536 7:1 8:-1 9:-1 
243 0:0.5 1:0.478992 2:-0.707965 3:-0.0752612 4:-0.195696 5:-0.253456 6:-0.375187 7:1 8:-1 9:-1 
243 0:0.513514 1:0.579832 2:-0.672566 3:-0.00513547 4:-0.0813719 5:-0.211323 6:-0.256602 7:-1 8:-1 9:1 
243 0:0.527027 1:0.512605 2:-0.725664 3:-0.00796883 4:-0.0531271 5:-0.302172 6:-0.335326 7:-1 8:-1 9:1 
243 0:0.527027 1:0.495798 2:-0.699115 3:0.0734903 4:-0.069267 5:-0.142857 6:-0.187843 7:1 8:-1 9:-1 
243 0:0.540541 1:0.495798 2:-0.725664 3:-0.136887 4:-0.174849 5:-0.379855 6:-0.368211 7:1 8:-1 9:-1 
243 0:0.540541 1:0.495798 2:-0.690265 3:-0.0533026 4:-0.149966 5:-0.213957 6:-0.307424 7:-1 8:-1 9:1 
243 0:0.540541 1:0.495798 2:-0.716814 3:-0.11847 4:-0.264963 5:-0.140224 6:-0.405082 7:1 8:-1 9:-1 
243 0:0.567568 1:0.529412 2:-0.690265 3:0.169116 4:0.143914 5:-0.115207 6:-0.199801 7:1 8:-1 9:-1 
243 0:0.72973 1:0.579832 2:-0.672566 3:0.103595 4:-0.106254 5:0.00724161 6:-0.195815 7:1 8:-1 9:-1 
243 0:0.256757 1:0.226891 2:-0.752212 3:-0.529308 4:-0.581036 5:-0.63792 6:-0.625311 7:-1 8:1 9:-1 
243 0:0.283784 1:0.243697 2:-0.734513 3:-0.412431 4:-0.448554 5:-0.536537 6:-0.5715 7:-1 8:-1 9:1 
243 0:0.351351 1:0.327731 2:-0.716814 3:-0.244909 4:-0.253531 5:-0.437788 6:-0.489786 7:1 8:-1 9:-1 
150.43482750756272 0:0.351351 1:0.277311 2:-0.769912 3:-0.431202 4:-0.577001 5:-0.433838 6:-0.514699 7:-1 8:1 9:-1 
243 0:0.418919 1:0.378151 2:-0.725664 3:-0.281388 4:-0.31271 5:-0.352205 6:-0.554559 7:-1 8:-1 9:1 
243 0:0.432432 1:0.428571 2:-0.699115 3:-0.163095 4:-0.218561 5:-0.378539 6:-0.371201 7:-1 8:-1 9:1 
243 0:0.459459 1:0.361345 2:-0.699115 3:-0.253055 4:-0.353732 5:-0.285056 6:-0.464873 7:-1 8:-1 9:1 
21.895117952546624 0:0.5 1:0.495798 2:-0.690265 3:-0.10572 4:-0.243443 5:-0.194207 6:-0.320379 7:-1 8:-1 9:1 
243 0:0.527027 1:0.546218 2:-0.707965 3:-0.0316982 4:-0.151311 5:-0.102041 6:-0.289487 7:-1 8:-1 9:1 
243 0:0.540541 1:0.428571 2:-0.699115 3:-0.197804 4:-0.29119 5:-0.332456 6:-0.395117 7:1 8:-1 9:-1 
243 0:0.554054 1:0.495798 2:-0.725664 3:-0.149991 4:-0.241426 5:-0.175774 6:-0.41704 7:-1 8:-1 9:1 
243 0:0.72973 1:0.613445 2:-0.663717 3:0.185408 4:0.194351 5:-0.17709 6:-0.165919 7:-1 8:-1 9:1 
243 0:0.0540541 1:-0.0420168 2:-0.80531 3:-0.756331 4:-0.809684 5:-0.809085 6:-0.777778 7:-1 8:1 9:-1 
243 0:0.189189 1:0.226891 2:-0.761062 3:-0.497786 4:-0.548083 5:-0.62212 6:-0.59442 7:-1 8:1 9:-1 
243 0:0.202703 1:0.159664 2:-0.769912 3:-0.588808 4:-0.687962 5:-0.64187 6:-0.644245 7:-1 8:1 9:-1 
243 0:0.22973 1:0.226891 2:-0.725664 3:-0.427661 4:-0.365837 5:-0.709019 6:-0.620329 7:-1 8:1 9:-1 
243 0:0.256757 1:0.226891 2:-0.743363 3:-0.388348 4:-0.420982 5:-0.572087 6:-0.569507 7:1 8:-1 9:-1 
243 0:0.27027 1:0.260504 2:-0.734513 3:-0.48539 4:-0.595158 5:-0.655036 6:-0.495765 7:-1 8:1 9:-1 
243 0:0.283784 1:0.260504 2:-0.743363 3:-0.442182 4:-0.497646 5:-0.55102 6:-0.558545 7:-1 8:1 9:-1 
243 0:0.283784 1:0.277311 2:-0.752212 3:-0.467682 4:-0.559516 5:-0.591837 6:-0.539611 7:-1 8:1 9:-1 
243 0:0.297297 1:0.260504 2:-0.725664 3:-0.477599 4:-0.579691 5:-0.623436 6:-0.444943 7:-1 8:1 9:-1 
243 0:0.310811 1:0.310924 2:-0.725664 3:-0.134408 4:-0.252858 5:-0.152074 6:-0.465869 7:1 8:-1 9:-1 
243 0:0.324324 1:0.294118 2:-0.690265 3:-0.382681 4:-0.444519 5:-0.448321 6:-0.584454 7:-1 8:1 9:-1 
243 0:0.324324 1:0.12605 2:-0.778761 3:-0.474411 4:-0.527909 5:-0.658986 6:-0.667165 7:-1 8:-1 9:1 
243 0:0.337838 1:0.277311 2:-0.699115 3:-0.383035 4:-0.487559 5:-0.519421 6:-0.463876 7:-1 8:-1 9:1 
243 0:0.337838 1:0.294118 2:-0.769912 3:-0.458474 4:-0.534633 5:-0.531271 6:-0.600399 7:-1 8:1 9:-1 
243 0:0.351351 1:0.226891 2:-0.761062 3:-0.394369 4:-0.381305 5:-0.61422 6:-0.579472 7:1 8:-1 9:-1 
243 0:0.351351 1:0.361345 2:-0.725664 3:-0.369577 4:-0.407532 5:-0.537854 6:-0.564524 7:-1 8:-1 9:1 
243 0:0.364865 1:0.361345 2:-0.725664 3:0.0182398 4:-0.0981843 5:-0.282423 6:-0.414051 7:-1 8:-1 9:1 
243 0:0.364865 1:0.344538 2:-0.761062 3:-0.437932 4:-0.456624 5:-0.561554 6:-0.596413 7:-1 8:-1 9:1 
243 0:0.378378 1:0.361345 2:-0.707965 3:-0.212679 4:-0.217888 5:-0.383805 6:-0.456901 7:-1 8:-1 9:1 
243 0:0.378378 1:0.394958 2:-0.707965 3:-0.00336462 4:0.0746469 5:-0.398288 6:-0.415047 7:-1 8:-1 9:1 
243 0:0.378378 1:0.411765 2:-0.734513 3:-0.247034 4:-0.286483 5:-0.477288 6:-0.428002 7:-1 8:-1 9:1 
243 0:0.391892 1:0.344538 2:-0.725664 3:-0.374181 4:-0.479489 5:-0.506254 6:-0.454908 7:-1 8:-1 9:1 
243 0:0.405405 1:0.378151 2:-0.734513 3:-0.307243 4:-0.447882 5:-0.485188 6:-0.553563 7:1 8:-1 9:-1 
194.82049032584044 0:0.405405 1:0.378151 2:-0.725664 3:-0.274659 4:-0.376597 5:-0.706386 6:-0.395117 7:1 8:-1 9:-1 
243 0:0.418919 1:0.411765 2:-0.699115 3:-0.199929 4:-0.31809 5:-0.285056 6:-0.387145 7:-1 8:-1 9:1 
243 0:0.418919 1:0.411765 2:-0.734513 3:-0.208075 4:-0.241426 5:-0.352205 6:-0.464873 7:-1 8:1 9:-1 
243 0:0.418919 1:0.378151 2:-0.725664 3:-0.264742 4:-0.361802 5:-0.342989 6:-0.444943 7:1 8:-1 9:-1 
243 0:0.418919 1:0.344538 2:-0.743363 3:-0.371348 4:-0.437794 5:-0.549704 6:-0.466866 7:1 8:-1 9:-1 
243 0:0.418919 1:0.361345 2:-0.725664 3:-0.321764 4:-0.402152 5:-0.503621 6:-0.415047 7:-1 8:-1 9:1 
243 0:0.432432 1:0.445378 2:-0.734513 3:-0.124491 4:-0.151984 5:-0.406188 6:-0.345291 7:-1 8:1 9:-1 
243 0:0.432432 1:0.277311 2:-0.769912 3:-0.362139 4:-0.420309 5:-0.54312 6:-0.484803 7:-1 8:1 9:-1 
243 0:0.432432 1:0.394958 2:-0.716814 3:-0.23393 4:-0.274378 5:-0.418038 6:-0.454908 7:1 8:-1 9:-1 
243 0:0.445946 1:0.327731 2:-0.734513 3:-0.384452 4:-0.453934 5:-0.518104 6:-0.504733 7:-1 8:-1 9:1 
243 0:0.445946 1:0.428571 2:-0.707965 3:-0.120241 4:-0.147949 5:-0.324556 6:-0.395117 7:-1 8:-1 9:1 
243 0:0.445946 1:0.361345 2:-0.716814 3:-0.293076 4:-0.33692 5:-0.482554 6:-0.454908 7:-1 8:-1 9:1 
243 0:0.459459 1:0.411765 2:-0.725664 3:-0.290243 4:-0.399462 5:-0.493088 6:-0.426009 7:1 8:-1 9:-1 
243 0:0.459459 1:0.495798 2:-0.699115 3:-0.254826 4:-0.349697 5:-0.400922 6:-0.415047 7:-1 8:-1 9:1 
243 0:0.459459 1:0.411765 2:-0.707965 3:-0.276784 4:-0.341627 5:-0.486504 6:-0.398107 7:1 8:-1 9:-1 
243 0:0.459459 1:0.411765 2:-0.699115 3:-0.2017 4:-0.356422 5:-0.206057 6:-0.405082 7:-1 8:-1 9:1 
243 0:0.472973 1:0.495798 2:-0.734513 3:-0.0855321 4:-0.199731 5:-0.175774 6:-0.297459 7:1 8:-1 9:-1 
243 0:0.486486 1:0.512605 2:-0.690265 3:-0.186825 4:-0.264963 5:-0.327189 6:-0.396114 7:1 8:-1 9:-1 
243 0:0.486486 1:0.428571 2:-0.725664 3:-0.148929 4:-0.212508 5:-0.371955 6:-0.368211 7:1 8:-1 9:-1 
243 0:0.5 1:0.411765 2:-0.743363 3:-0.250221 4:-0.306658 5:-0.423305 6:-0.444943 7:-1 8:1 9:-1 
243 0:0.5 1:0.478992 2:-0.716814 3:-0.2272 4:-0.332885 5:-0.419355 6:-0.375187 7:-1 8:-1 9:1 
243 0:0.513514 1:0.462185 2:-0.716814 3:-0.221534 4:-0.28312 5:-0.510204 6:-0.3144 7:-1 8:-1 9:1 
243 0:0.540541 1:0.529412 2:-0.716814 3:-0.163095 4:-0.253531 5:-0.373272 6:-0.315396 7:-1 8:-1 9:1 
243 0:0.554054 1:0.529412 2:-0.699115 3:0.108553 4:-0.0268998 5:-0.082291 6:-0.223717 7:1 8:-1 9:-1 
243 0:0.567568 1:0.462185 2:-0.690265 3:-0.0391358 4:-0.141224 5:-0.227123 6:-0.275536 7:-1 8:-1 9:1 
243 0:0.581081 1:0.478992 2:-0.628319 3:0.0950947 4:-0.0275723 5:-0.0730744 6:-0.220727 7:1 8:-1 9:-1 
243 0:0.581081 1:0.546218 2:-0.699115 3:-0.0543651 4:-0.174176 5:-0.178407 6:-0.290483 7:1 8:-1 9:-1 
243 0:0.689189 1:0.647059 2:-0.769912 3:0.100761 4:-0.0968393 5:-0.0164582 6:-0.61435 7:1 8:-1 9:-1 
243 0:0.702703 1:0.731092 2:-0.681416 3:0.0855321 4:0.289845 5:0.103357 6:-0.145989 7:1 8:-1 9:-1 
243 0:0.432432 1:0.445378 2:-0.707965 3:-0.32743 4:-0.391392 5:-0.493088 6:-0.451918 7:1 8:-1 9:-1 
243 0:0.445946 1:0.445378 2:-0.699115 3:-0.221888 4:-0.312038 5:-0.398288 6:-0.395117 7:1 8:-1 9:-1 
243 0:0.472973 1:0.445378 2:-0.725664 3:-0.258367 4:-0.37996 5:-0.393022 6:-0.504733 7:-1 8:-1 9:1 
243 0:0.486486 1:0.563025 2:-0.690265 3:-0.00230211 4:-0.071957 5:-0.15339 6:-0.312407 7:-1 8:-1 9:1 
-243 0:0.22973 1:0.226891 2:-0.761062 3:-0.52187 4:-0.656355 5:-0.628703 6:-0.584454 7:1 8:-1 9:-1 
-243 0:0.0810811 1:0.0588235 2:-0.778761 3:-0.640517 4:-0.710155 5:-0.705069 6:-0.674141 7:-1 8:-1 9:1 
-243 0:-0.243243 1:-0.243697 2:-0.849558 3:-0.795644 4:-0.873571 5:-0.897301 6:-0.773792 7:-1 8:1 9:-1 
-243 0:-0.216216 1:-0.193277 2:-0.858407 3:-0.820436 4:-0.870881 5:-0.888084 6:-0.803687 7:-1 8:-1 9:1 
-243 0:0.0135135 1:-0.109244 2:-0.823009 3:-0.731539 4:-0.772024 5:-0.803818 6:-0.773792 7:-1 8:-1 9:1 
-243 0:0.283784 1:0.210084 2:-0.761062 3:-0.460599 4:-0.573638 5:-0.448321 6:-0.604385 7:1 8:-1 9:-1 
-243 0:0.0135135 1:0.00840336 2:-0.814159 3:-0.631309 4:-0.682582 5:-0.694536 6:-0.714001 7:1 8:-1 9:-1 
-243 0:0.0135135 1:-0.0588235 2:-0.814159 3:-0.700372 4:-0.750504 5:-0.761685 6:-0.773792 7:1 8:-1 9:-1 
-243 0:0.0405405 1:0.0756303 2:-0.787611 3:-0.675226 4:-0.762609 5:-0.711652 6:-0.704036 7:1 8:-1 9:-1 
-243 0:0.216216 1:0.243697 2:-0.716814 3:-0.409598 4:-0.524546 5:-0.439105 6:-0.514699 7:1 8:-1 9:-1 
-243 0:0.202703 1:0.193277 2:-0.787611 3:-0.579954 4:-0.680565 5:-0.709019 6:-0.624315 7:-1 8:1 9:-1 
-243 0:0.148649 1:0.159664 2:-0.752212 3:-0.532849 4:-0.656355 5:-0.539171 6:-0.564524 7:1 8:-1 9:-1 
-243 1:-0.00840336 2:-0.787611 3:-0.687976 4:-0.743107 5:-0.749835 6:-0.733931 7:-1 8:-1 9:1 
-243 0:0.0675676 1:0.109244 2:-0.761062 3:-0.58385 4:-0.629455 5:-0.685319 6:-0.664175 7:-1 8:-1 9:1 
-243 0:0.162162 1:0.159664 2:-0.778761 3:-0.588454 4:-0.670477 5:-0.658986 6:-0.65421 7:1 8:-1 9:-1 
-243 0:0.0135135 1:-0.0252101 2:-0.814159 3:-0.709934 4:-0.759247 5:-0.705069 6:-0.733931 7:-1 8:-1 9:1 
-243 0:0.202703 1:0.159664 2:-0.787611 3:-0.590579 4:-0.686617 5:-0.655036 6:-0.63428 7:-1 8:-1 9:1 
-243 0:-0.121622 1:-0.109244 2:-0.80531 3:-0.751372 4:-0.812374 5:-0.741935 6:-0.803687 7:1 8:-1 9:-1 
-243 0:0.405405 1:0.411765 2:-0.752212 3:-0.332743 4:-0.513786 5:-0.503621 6:-0.375187 7:-1 8:-1 9:1 
-243 0:0.351351 1:0.310924 2:-0.752212 3:-0.334868 4:-0.484196 5:-0.337722 6:-0.434978 7:1 8:-1 9:-1 
-243 0:0.0405405 1:0.00840336 2:-0.769912 3:-0.635205 4:-0.704775 5:-0.701119 6:-0.674141 7:1 8:-1 9:-1 
-243 0:0.243243 1:0.277311 2:-0.734513 3:-0.48787 4:-0.639543 5:-0.636603 6:-0.504733 7:-1 8:-1 9:1 
-243 0:0.0675676 1:0.0756303 2:-0.769912 3:-0.630954 4:-0.713517 5:-0.65372 6:-0.714001 7:-1 8:-1 9:1 
-243 0:0.0675676 1:0.0588235 2:-0.769912 3:-0.631309 4:-0.731002 5:-0.651086 6:-0.674141 7:-1 8:-1 9:1 
-243 0:0.175676 1:0.12605 2:-0.761062 3:-0.552683 4:-0.690652 5:-0.529954 6:-0.604385 7:1 8:-1 9:-1 
-243 0:-0.027027 1:0.142857 2:-0.814159 3:-0.743935 4:-0.818426 5:-0.743252 6:-0.743896 7:1 8:-1 9:-1 
-243 0:0.135135 1:0.142857 2:-0.778761 3:-0.61785 4:-0.68191 5:-0.647136 6:-0.694071 7:-1 8:-1 9:1 
-243 0:0.0540541 1:0.0252101 2:-0.814159 3:-0.696122 4:-0.770007 5:-0.719552 6:-0.65421 7:-1 8:-1 9:1 
-243 0:-0.0540541 1:-0.00840336 2:-0.814159 3:-0.723039 4:-0.826496 5:-0.835418 6:-0.674141 7:-1 8:-1 9:1 
-243 0:0.310811 1:0.260504 2:-0.734513 3:-0.376306 4:-0.535306 5:-0.548387 6:-0.385152 7:1 8:-1 9:-1 
-243 0:0.0675676 1:0.0420168 2:-0.814159 3:-0.703559 4:-0.782112 5:-0.728769 6:-0.723966 7:1 8:-1 9:-1 
-243 0:-0.0135135 1:-0.00840336 2:-0.778761 3:-0.715601 4:-0.765972 5:-0.835418 6:-0.745889 7:1 8:-1 9:-1 
-176.37835817882382 0:-0.324324 1:-0.310924 2:-0.840708 3:-0.865769 4:-0.887021 5:-0.906517 6:-0.879422 7:1 8:-1 9:-1 
-243 0:-0.0540541 1:-0.0756303 2:-0.79646 3:-0.71383 4:-0.781439 5:-0.788018 6:-0.732935 7:1 8:-1 9:-1 
-243 0:-0.108108 1:-0.092437 2:-0.80531 3:-0.749602 4:-0.798252 5:-0.835418 6:-0.769806 7:1 8:-1 9:-1 
-243 0:-0.189189 1:-0.226891 2:-0.831858 3:-0.822206 4:-0.872226 5:-0.849901 6:-0.818635 7:-1 8:-1 9:1 
-106.05814606242397 0:-0.743243 1:-0.747899 2:-0.831858 3:-0.980166 4:-0.98386 5:-0.98025 6:-0.983059 7:-1 8:1 9:-1 
-243 0:0.432432 1:0.495798 2:-0.672566 3:-0.209138 4:-0.370545 5:-0.320606 6:-0.335326 7:1 8:-1 9:-1 
-243 0:0.22973 1:0.142857 2:-0.743363 3:-0.452453 4:-0.587088 5:-0.556287 6:-0.494768 7:1 8:-1 9:-1 
-243 0:0.216216 1:0.277311 2:-0.725664 3:-0.247034 4:-0.34768 5:-0.387755 6:-0.434978 7:-1 8:-1 9:1 
-243 0:0.202703 1:0.176471 2:-0.79646 3:-0.451744 4:-0.570948 5:-0.515471 6:-0.564524 7:1 8:-1 9:-1 
-243 0:0.378378 1:0.361345 2:-0.699115 3:-0.340889 4:-0.510424 5:-0.287689 6:-0.425012 7:1 8:-1 9:-1 
-243 0:-0.243243 1:-0.260504 2:-0.849558 3:-0.845582 4:-0.877606 5:-0.843318 6:-0.704036 7:-1 8:1 9:-1 
-243 0:0.0135135 1:-0.0252101 2:-0.787611 3:-0.706393 4:-0.778749 5:-0.751152 6:-0.733931 7:1 8:-1 9:-1 
-243 0:-0.0675676 1:-0.0588235 2:-0.79646 3:-0.740039 4:-0.771352 5:-0.814352 6:-0.763827 7:-1 8:-1 9:1 
-243 0:-0.0135135 1:-0.0420168 2:-0.752212 3:-0.659996 4:-0.751177 5:-0.715602 6:-0.684106 7:1 8:-1 9:-1 
-243 0:-0.121622 1:-0.176471 2:-0.80531 3:-0.778289 4:-0.854741 5:-0.824885 6:-0.763827 7:-1 8:1 9:-1 
-243 0:-0.027027 1:-0.0420168 2:-0.80531 3:-0.732601 4:-0.800269 5:-0.777485 6:-0.763827 7:-1 8:1 9:-1 
-243 0:0.148649 1:0.176471 2:-0.752212 3:-0.565433 4:-0.677202 5:-0.644503 6:-0.59442 7:-1 8:-1 9:1 
-243 0:0.0135135 1:-0.00840336 2:-0.769912 3:-0.67558 4:-0.767317 5:-0.709019 6:-0.733931 7:-1 8:-1 9:1 
-243 0:-0.108108 1:-0.176471 2:-0.787611 3:-0.771914 4:-0.831204 5:-0.816985 6:-0.783757 7:-1 8:1 9:-1 
-243 0:-0.0810811 1:-0.159664 2:-0.769912 3:-0.774748 4:-0.825824 5:-0.802502 6:-0.793722 7:1 8:-1 9:-1 
-243 1:-0.092437 2:-0.778761 3:-0.679122 4:-0.761264 5:-0.705069 6:-0.723966 7:1 8:-1 9:-1 
-243 0:0.121622 1:0.0756303 2:-0.734513 3:-0.593767 4:-0.705447 5:-0.62212 6:-0.624315 7:1 8:-1 9:-1 
-243 0:0.148649 1:0.0588235 2:-0.761062 3:-0.682663 4:-0.770679 5:-0.723502 6:-0.694071 7:1 8:-1 9:-1 
-243 0:-0.148649 1:-0.210084 2:-0.778761 3:-0.785019 4:-0.838601 5:-0.785385 6:-0.823617 7:1 8:-1 9:-1 
-243 0:-0.256757 1:-0.260504 2:-0.80531 3:-0.794227 4:-0.836584 5:-0.834101 6:-0.822621 7:-1 8:-1 9:1 
-243 0:0.0675676 1:0.12605 2:-0.734513 3:-0.551266 4:-0.707465 5:-0.768269 6:-0.494768 7:-1 8:-1 9:1 
-243 0:0.027027 1:0.00840336 2:-0.787611 3:-0.683018 4:-0.763282 5:-0.727452 6:-0.704036 7:1 8:-1 9:-1 
-243 0:-0.0135135 1:0.00840336 2:-0.778761 3:-0.663184 4:-0.823806 5:-0.786702 6:-0.624315 7:-1 8:-1 9:1 
-243 0:-0.202703 1:-0.243697 2:-0.814159 3:-0.835665 4:-0.879623 5:-0.847268 6:-0.853513 7:-1 8:-1 9:1 
-243 0:-0.108108 1:-0.159664 2:-0.831858 3:-0.75456 4:-0.805649 5:-0.765635 6:-0.803687 7:1 8:-1 9:-1 
-243 0:-0.22973 1:-0.193277 2:-0.814159 3:-0.830707 4:-0.885003 5:-0.861751 6:-0.813652 7:-1 8:-1 9:1 
-243 0:-0.121622 1:-0.092437 2:-0.787611 3:-0.77581 4:-0.821116 5:-0.852535 6:-0.813652 7:1 8:-1 9:-1 
-243 0:0.0405405 1:0.243697 2:-0.725664 3:-0.472995 4:-0.597176 5:-0.601053 6:-0.524664 7:1 8:-1 9:-1 
-243 0:0.216216 1:0.226891 2:-0.716814 3:-0.465911 4:-0.632145 5:-0.545754 6:-0.454908 7:1 8:-1 9:-1 
-243 0:-0.189189 1:-0.159664 2:-0.79646 3:-0.809102 4:-0.877606 5:-0.806452 6:-0.823617 7:-1 8:1 9:-1 
-243 0:0.445946 1:0.478992 2:-0.672566 3:-0.1847 4:-0.28043 5:-0.23634 6:-0.514699 7:1 8:-1 9:-1 
-243 0:0.364865 1:0.344538 2:-0.699115 3:-0.34266 4:-0.452589 5:-0.319289 6:-0.564524 7:-1 8:-1 9:1 
-243 0:0.027027 1:0.0588235 2:-0.814159 3:-0.652559 4:-0.710827 5:-0.673469 6:-0.733931 7:1 8:-1 9:-1 
-243 0:0.0675676 1:0.092437 2:-0.743363 3:-0.585975 4:-0.680565 5:-0.62212 6:-0.63428 7:-1 8:-1 9:1 
-243 0:0.108108 1:0.0420168 2:-0.787611 3:-0.584558 4:-0.638198 5:-0.656353 6:-0.65421 7:1 8:-1 9:-1 
-243 0:0.189189 1:0.344538 2:-0.761062 3:-0.489641 4:-0.604573 5:-0.573404 6:-0.534629 7:-1 8:-1 9:1 
-243 0:-0.027027 1:-0.092437 2:-0.80531 3:-0.694351 4:-0.761937 5:-0.741935 6:-0.694071 7:1 8:-1 9:-1 
-243 0:0.0135135 1:0.00840336 2:-0.79646 3:-0.662121 4:-0.715535 5:-0.726136 6:-0.704036 7:-1 8:-1 9:1 
-243 0:0.337838 1:0.294118 2:-0.831858 3:-0.415619 4:-0.544721 5:-0.418038 6:-0.534629 7:-1 8:-1 9:1 
-243 0:0.310811 1:0.344538 2:-0.663717 3:-0.495661 4:-0.620713 5:-0.661619 6:-0.454908 7:1 8:-1 9:-1 
-243 0:0.22973 1:0.294118 2:-0.761062 3:-0.446432 4:-0.580363 5:-0.549704 6:-0.567514 7:1 8:-1 9:-1 
-243 0:0.0540541 1:-0.00840336 2:-0.79646 3:-0.703205 4:-0.790854 5:-0.761685 6:-0.734928 7:1 8:-1 9:-1 
-192.76457252436504 0:-0.27027 1:-0.344538 2:-0.840708 3:-0.857624 4:-0.896436 5:-0.845951 6:-0.893373 7:1 8:-1 9:-1 
-243 0:-0.162162 1:-0.176471 2:-0.831858 3:-0.831415 4:-0.882313 5:-0.845951 6:-0.833582 7:-1 8:-1 9:1 
-243 0:-0.027027 1:-0.0588235 2:-0.80531 3:-0.732247 4:-0.773369 5:-0.774852 6:-0.783757 7:1 8:-1 9:-1 
-243 1:-0.00840336 2:-0.79646 3:-0.745352 4:-0.790854 5:-0.818302 6:-0.769806 7:-1 8:-1 9:1 
-243 0:-0.0135135 1:-0.0420168 2:-0.814159 3:-0.743581 4:-0.802286 5:-0.789335 6:-0.768809 7:1 8:-1 9:-1 
-243 0:-0.202703 1:-0.210084 2:-0.79646 3:-0.824332 4:-0.852051 5:-0.851218 6:-0.853513 7:1 8:-1 9:-1 
-243 0:0.283784 1:0.260504 2:-0.752212 3:-0.496016 4:-0.656355 5:-0.511521 6:-0.554559 7:1 8:-1 9:-1 
-243 0:-0.324324 1:-0.378151 2:-0.867257 3:-0.891624 4:-0.937458 5:-0.907834 6:-0.883408 7:-1 8:-1 9:1 
-243 0:-0.175676 1:-0.159664 2:-0.831858 3:-0.802019 4:-0.832549 5:-0.863068 6:-0.823617 7:1 8:-1 9:-1 
-243 0:-0.0405405 1:-0.0420168 2:-0.787611 3:-0.724455 4:-0.792199 5:-0.751152 6:-0.72297 7:1 8:-1 9:-1 
-243 0:0.0675676 1:0.0252101 2:-0.769912 3:-0.631309 4:-0.735037 5:-0.720869 6:-0.674141 7:-1 8:1 9:-1 
-243 0:-0.22973 1:-0.193277 2:-0.823009 3:-0.852311 4:-0.912576 5:-0.863068 6:-0.853513 7:-1 8:-1 9:1 
-243 0:-0.243243 1:-0.294118 2:-0.840708 3:-0.882415 4:-0.934095 5:-0.893351 6:-0.877429 7:-1 8:-1 9:1 
-243 0:-0.175676 1:-0.394958 2:-0.823009 3:-0.818665 4:-0.859449 5:-0.859118 6:-0.843548 7:-1 8:-1 9:1 
-58.62874500959439 0:0.0135135 1:-0.0420168 2:-0.769912 3:-0.738268 4:-0.785474 5:-0.791968 6:-0.793722 7:-1 8:-1 9:1 
-243 0:0.0945946 1:0.0756303 2:-0.743363 3:-0.451036 4:-0.710827 5:-0.658986 6:-0.664175 7:-1 8:-1 9:1 
-243 0:0.0810811 1:0.0252101 2:-0.778761 3:-0.684788 4:-0.773369 5:-0.788018 6:-0.723966 7:1 8:-1 9:-1 
-243 0:-0.202703 1:-0.260504 2:-0.823009 3:-0.843811 4:-0.876261 5:-0.932851 6:-0.843548 7:1 8:-1 9:-1 
-243 0:-0.027027 1:-0.092437 2:-0.79646 3:-0.724101 4:-0.794217 5:-0.753785 6:-0.763827 7:1 8:-1 9:-1 
-243 0:-0.175676 1:-0.210084 2:-0.787611 3:-0.800956 4:-0.843309 5:-0.828835 6:-0.833582 7:-1 8:-1 9:1 
-243 1:-0.0756303 2:-0.814159 3:-0.680893 4:-0.759247 5:-0.730086 6:-0.757848 7:1 8:-1 9:-1 
-243 0:-0.121622 1:-0.176471 2:-0.778761 3:-0.706039 4:-0.744452 5:-0.764319 6:-0.768809 7:-1 8:-1 9:1 
-243 0:-0.243243 1:-0.294118 2:-0.849558 3:-0.85904 4:-0.908541 5:-0.861751 6:-0.864474 7:-1 8:-1 9:1 
-243 0:-0.22973 1:-0.294118 2:-0.840708 3:-0.855144 4:-0.896436 5:-0.851218 6:-0.883408 7:1 8:-1 9:-1 
-243 0:0.202703 1:0.109244 2:-0.752212 3:-0.534266 4:-0.667115 5:-0.465438 6:-0.684106 7:-1 8:-1 9:1 
-243 0:-0.27027 1:-0.277311 2:-0.831858 3:-0.861874 4:-0.911903 5:-0.869651 6:-0.863478 7:-1 8:-1 9:1 
-243 0:0.108108 1:0.0756303 2:-0.752212 3:-0.632371 4:-0.732347 5:-0.677419 6:-0.664175 7:-1 8:1 9:-1 
-243 0:-0.162162 1:-0.260504 2:-0.79646 3:-0.811227 4:-0.870208 5:-0.784068 6:-0.833582 7:-1 8:-1 9:1 
-243 0:0.027027 1:-0.0420168 2:-0.761062 3:-0.674163 4:-0.776059 5:-0.585253 6:-0.763827 7:-1 8:-1 9:1 
-243 0:0.189189 1:0.12605 2:-0.769912 3:-0.593767 4:-0.735709 5:-0.658986 6:-0.635277 7:1 8:-1 9:-1 
-243 0:0.162162 1:0.12605 2:-0.716814 3:-0.545245 4:-0.66846 5:-0.468071 6:-0.67713 7:1 8:-1 9:-1 
-243 0:0.0675676 1:0.0588235 2:-0.681416 3:-0.640163 4:-0.743779 5:-0.662936 6:-0.679123 7:-1 8:-1 9:1 
-243 0:-0.0135135 1:-0.0588235 2:-0.80531 3:-0.72233 4:-0.790182 5:-0.748519 6:-0.759841 7:-1 8:-1 9:1 
-243 0:-0.0540541 1:-0.0756303 2:-0.769912 3:-0.689393 4:-0.796907 5:-0.755102 6:-0.694071 7:-1 8:-1 9:1 
-243 0:-0.108108 1:-0.159664 2:-0.787611 3:-0.77581 4:-0.835239 5:-0.763002 6:-0.813652 7:-1 8:-1 9:1 
-243 0:-0.0540541 1:-0.092437 2:-0.823009 3:-0.719497 4:-0.841964 5:-0.831468 6:-0.814649 7:-1 8:1 9:-1 
-243 0:0.0135135 1:-0.00840336 2:-0.769912 3:-0.613954 4:-0.671822 5:-0.631336 6:-0.72297 7:-1 8:1 9:-1 
-243 0:0.0675676 1:0.0756303 2:-0.787611 3:-0.590225 4:-0.643578 5:-0.755102 6:-0.666168 7:-1 8:-1 9:1 
-243 0:0.0810811 1:0.0420168 2:-0.778761 3:-0.614308 4:-0.693342 5:-0.689269 6:-0.660189 7:-1 8:1 9:-1 
-243 0:0.0945946 1:0.0420168 2:-0.761062 3:-0.548433 4:-0.605245 5:-0.703752 6:-0.65421 7:1 8:-1 9:-1 
-243 0:0.121622 1:0.109244 2:-0.778761 3:-0.570037 4:-0.589106 5:-0.748519 6:-0.649228 7:-1 8:-1 9:1 
-243 0:0.135135 1:0.193277 2:-0.778761 3:-0.466265 4:-0.550101 5:-0.661619 6:-0.576482 7:1 8:-1 9:-1 
-243 0:0.148649 1:0.159664 2:-0.778761 3:-0.578183 4:-0.638198 5:-0.665569 6:-0.672147 7:-1 8:-1 9:1 
-243 0:0.162162 1:0.294118 2:-0.752212 3:-0.415265 4:-0.542031 5:-0.512837 6:-0.526657 7:-1 8:-1 9:1 
-243 0:0.216216 1:0.142857 2:-0.769912 3:-0.460599 4:-0.547411 5:-0.62607 6:-0.554559 7:-1 8:-1 9:1 
-243 0:0.283784 1:0.260504 2:-0.778761 3:-0.347618 4:-0.458642 5:-0.540487 6:-0.438964 7:1 8:-1 9:-1 
-243 0:0.297297 1:0.277311 2:-0.743363 3:-0.315389 4:-0.330868 5:-0.55892 6:-0.527653 7:-1 8:-1 9:1 
-243 0:0.337838 1:0.344538 2:-0.734513 3:-0.327076 4:-0.477471 5:-0.433838 6:-0.455904 7:-1 8:-1 9:1 
-243 0:0.351351 1:0.378151 2:-0.752212 3:-0.322826 4:-0.406859 5:-0.523371 6:-0.463876 7:1 8:-1 9:-1 
-243 0:0.391892 1:0.411765 2:-0.707965 3:-0.238534 4:-0.390047 5:-0.358789 6:-0.386148 7:-1 8:-1 9:1 
-243 0:0.405405 1:0.428571 2:-0.716814 3:-0.144679 4:-0.298588 5:-0.221856 6:-0.365222 7:1 8:-1 9:-1 
-243 0:0.405405 1:0.411765 2:-0.716814 3:-0.193554 4:-0.265636 5:-0.393022 6:-0.46288 7:1 8:-1 9:-1 
-243 0:0.432432 1:0.344538 2:-0.716814 3:-0.219763 4:-0.435104 5:-0.207373 6:-0.355257 7:-1 8:-1 9:1 
-243 0:0.459459 1:0.529412 2:-0.734513 3:-0.0834071 4:-0.268325 5:-0.128374 6:-0.365222 7:-1 8:-1 9:1 
-243 0:0.472973 1:0.495798 2:-0.707965 3:-0.0756154 4:-0.146604 5:-0.331139 6:-0.375187 7:-1 8:-1 9:1 
-243 0:0.513514 1:0.529412 2:-0.699115 3:-0.0412608 4:-0.168796 5:-0.198157 6:-0.22571 7:-1 8:-1 9:1 
-46.373545920977968 0:0.513514 1:0.445378 2:-0.707965 3:-0.0844696 4:-0.102892 5:-0.315339 6:-0.461883 7:1 8:-1 9:-1 
-243 0:0.527027 1:0.529412 2:-0.707965 3:0.0511776 4:0.0201748 5:-0.127057 6:-0.363229 7:1 8:-1 9:-1 
-243 0:0.567568 1:0.563025 2:-0.707965 3:-0.00301045 4:-0.213181 5:-0.235023 6:-0.195815 7:-1 8:-1 9:1 
-243 0:0.621622 1:0.579832 2:-0.725664 3:0.0458651 4:-0.156691 5:-0.104674 6:-0.165919 7:1 8:-1 9:-1 
-106.98409832123556 0:-0.445946 1:-0.781513 2:-0.867257 3:-0.918541 4:-0.940148 5:-0.924951 6:-0.93423 7:-1 8:1 9:-1 
-243 1:-0.00840336 2:-0.769912 3:-0.704268 4:-0.773369 5:-0.752469 6:-0.764823 7:-1 8:1 9:-1 
-243 0:0.0135135 1:0.0252101 2:-0.769912 3:-0.66283 4:-0.744452 5:-0.666886 6:-0.729945 7:-1 8:1 9:-1 
-243 0:0.027027 1:0.00840336 2:-0.778761 3:-0.624225 4:-0.698722 5:-0.669519 6:-0.711011 7:-1 8:1 9:-1 
-243 0:0.0810811 1:0.0588235 2:-0.778761 3:-0.621038 4:-0.702757 5:-0.681369 6:-0.704036 7:-1 8:-1 9:1 
-243 0:0.0945946 1:0.109244 2:-0.743363 3:-0.548079 4:-0.607935 5:-0.631336 6:-0.689088 7:-1 8:-1 9:1 
-243 0:0.108108 1:0.0588235 2:-0.79646 3:-0.662476 4:-0.73302 5:-0.749835 6:-0.745889 7:1 8:-1 9:-1 
-243 0:0.162162 1:0.12605 2:-0.769912 3:-0.523995 4:-0.575656 5:-0.63002 6:-0.647235 7:1 8:-1 9:-1 
-243 0:0.162162 1:0.00840336 2:-0.778761 3:-0.575704 4:-0.665098 5:-0.684003 6:-0.63428 7:-1 8:1 9:-1 
-243 0:0.175676 1:0.0756303 2:-0.823009 3:-0.591642 4:-0.681237 5:-0.678736 6:-0.65421 7:-1 8:1 9:-1 
-243 0:0.175676 1:0.176471 2:-0.761062 3:-0.456703 4:-0.509751 5:-0.583937 6:-0.644245 7:-1 8:1 9:-1 
-243 0:0.175676 1:0.176471 2:-0.734513 3:-0.503099 4:-0.534633 5:-0.648453 6:-0.627304 7:-1 8:-1 9:1 
-243 0:0.175676 1:0.193277 2:-0.743363 3:-0.437577 4:-0.481506 5:-0.523371 6:-0.613353 7:-1 8:-1 9:1 
-243 0:0.189189 1:0.260504 2:-0.752212 3:-0.410661 4:-0.507734 5:-0.474654 6:-0.544594 7:1 8:-1 9:-1 
-243 0:0.216216 1:0.210084 2:-0.752212 3:-0.488578 4:-0.533961 5:-0.545754 6:-0.65421 7:1 8:-1 9:-1 
-243 0:0.22973 1:0.243697 2:-0.769912 3:-0.46414 4:-0.564223 5:-0.482554 6:-0.59442 7:1 8:-1 9:-1 
-243 0:0.22973 1:0.243697 2:-0.734513 3:-0.399681 4:-0.560188 5:-0.390388 6:-0.600399 7:1 8:-1 9:-1 
-243 0:0.22973 1:0.176471 2:-0.778761 3:-0.539933 4:-0.63618 5:-0.57867 6:-0.632287 7:-1 8:-1 9:1 
-243 0:0.243243 1:0.159664 2:-0.761062 3:-0.419515 4:-0.472091 5:-0.485188 6:-0.59442 7:1 8:-1 9:-1 
-243 0:0.243243 1:0.260504 2:-0.752212 3:-0.493891 4:-0.61735 5:-0.581303 6:-0.573493 7:-1 8:-1 9:1 
-243 0:0.243243 1:0.277311 2:-0.752212 3:-0.382327 4:-0.498991 5:-0.398288 6:-0.565521 7:-1 8:-1 9:1 
-243 0:0.283784 1:0.260504 2:-0.752212 3:-0.427307 4:-0.506389 5:-0.577354 6:-0.454908 7:1 8:-1 9:-1 
-243 0:0.310811 1:0.344538 2:-0.716814 3:-0.316451 4:-0.392737 5:-0.456221 6:-0.456901 7:1 8:-1 9:-1 
-243 0:0.324324 1:0.159664 2:-0.769912 3:-0.507349 4:-0.587761 5:-0.56287 6:-0.644245 7:1 8:-1 9:-1 
-243 0:0.337838 1:0.344538 2:-0.734513 3:-0.217284 4:-0.27505 5:-0.329822 6:-0.464873 7:1 8:-1 9:-1 
-243 0:0.337838 1:0.310924 2:-0.752212 3:-0.248096 4:-0.293208 5:-0.423305 6:-0.524664 7:-1 8:-1 9:1 
-243 0:0.337838 1:0.361345 2:-0.699115 3:-0.361431 4:-0.453262 5:-0.491771 6:-0.576482 7:-1 8:-1 9:1 
-243 0:0.351351 1:0.411765 2:-0.716814 3:-0.212325 4:-0.334902 5:-0.278473 6:-0.425012 7:-1 8:-1 9:1 
-243 0:0.351351 1:0.361345 2:-0.716814 3:-0.220117 4:-0.27774 5:-0.419355 6:-0.506726 7:1 8:-1 9:-1 
-243 0:0.364865 1:0.361345 2:-0.734513 3:-0.211263 4:-0.251513 5:-0.407505 6:-0.425012 7:1 8:-1 9:-1 
-243 0:0.364865 1:0.361345 2:-0.681416 3:-0.256596 4:-0.450572 5:-0.317972 6:-0.452915 7:1 8:-1 9:-1 
-243 0:0.364865 1:0.327731 2:-0.743363 3:-0.196033 4:-0.250168 5:-0.421988 6:-0.425012 7:1 8:-1 9:-1 
-243 0:0.391892 1:0.394958 2:-0.716814 3:-0.147158 4:-0.357095 5:-0.362739 6:-0.387145 7:-1 8:-1 9:1 
-243 0:0.391892 1:0.344538 2:-0.743363 3:-0.248451 4:-0.308003 5:-0.357472 6:-0.504733 7:1 8:-1 9:-1 
-243 0:0.405405 1:0.411765 2:-0.707965 3:-0.142199 4:-0.166106 5:-0.360105 6:-0.456901 7:-1 8:-1 9:1 
-243 0:0.405405 1:0.361345 2:-0.752212 3:-0.289888 4:-0.375252 5:-0.449638 6:-0.501744 7:1 8:-1 9:-1 
-243 0:0.405405 1:0.344538 2:-0.734513 3:-0.261909 4:-0.30464 5:-0.420671 6:-0.464873 7:-1 8:-1 9:1 
-243 0:0.432432 1:0.462185 2:-0.734513 3:-0.197804 4:-0.293208 5:-0.304806 6:-0.415047 7:1 8:-1 9:-1 
-243 0:0.432432 1:0.411765 2:-0.725664 3:-0.179033 4:-0.232011 5:-0.354839 6:-0.454908 7:-1 8:-1 9:1 
-243 0:0.459459 1:0.428571 2:-0.716814 3:-0.11422 4:-0.214526 5:-0.317972 6:-0.345291 7:1 8:-1 9:-1 
-243 0:0.486486 1:0.495798 2:-0.707965 3:-0.0890738 4:-0.230666 5:-0.202107 6:-0.375187 7:1 8:-1 9:-1 
-243 0:0.486486 1:0.445378 2:-0.646018 3:-0.0239065 4:-0.215198 5:-0.206057 6:-0.203787 7:1 8:-1 9:-1 
-243 0:0.5 1:0.445378 2:-0.725664 3:-0.0961573 4:-0.144586 5:-0.277156 6:-0.385152 7:-1 8:-1 9:1 
-243 0:0.5 1:0.428571 2:-0.734513 3:-0.166637 4:-0.303968 5:-0.348255 6:-0.358246 7:-1 8:-1 9:1 
-243 0:0.540541 1:0.563025 2:-0.690265 3:0.104303 4:-0.0477471 5:-0.0651745 6:-0.20578 7:-1 8:-1 9:1 
-243 0:0.540541 1:0.512605 2:-0.707965 3:0.0132814 4:-0.0813719 5:-0.190257 6:-0.333333 7:1 8:-1 9:-1 
-243 0:0.554054 1:0.478992 2:-0.716814 3:-0.0777404 4:-0.234701 5:-0.179724 6:-0.260588 7:-1 8:-1 9:1 
-243 0:0.581081 1:0.613445 2:-0.663717 3:0.125199 4:-0.137189 5:-0.219223 6:0.0284006 7:-1 8:-1 9:1 
-243 0:0.581081 1:0.411765 2:-0.681416 3:-0.0313441 4:-0.139206 5:-0.227123 6:-0.335326 7:1 8:-1 9:-1 
-243 0:0.662162 1:0.579832 2:-0.690265 3:0.203117 4:0.108944 5:-0.0480579 6:-0.195815 7:-1 8:-1 9:1 
-243 1:-0.0420168 2:-0.743363 3:-0.693997 4:-0.739744 5:-0.763002 6:-0.743896 7:-1 8:1 9:-1 
-243 0:0.0675676 1:0.092437 2:-0.778761 3:-0.658226 4:-0.717552 5:-0.718236 6:-0.71998 7:-1 8:1 9:-1 
-243 0:0.148649 1:0.0756303 2:-0.752212 3:-0.612183 4:-0.667787 5:-0.706386 6:-0.687095 7:-1 8:1 9:-1 
-243 0:0.148649 1:0.0756303 2:-0.787611 3:-0.617496 4:-0.712172 5:-0.695853 6:-0.664175 7:-1 8:1 9:-1 
-243 0:0.162162 1:0.12605 2:-0.778761 3:-0.615725 4:-0.670477 5:-0.60632 6:-0.72297 7:1 8:-1 9:-1 
-243 0:0.175676 1:0.092437 2:-0.79646 3:-0.636267 4:-0.712172 5:-0.702436 6:-0.672147 7:-1 8:1 9:-1 
-243 0:0.202703 1:0.159664 2:-0.743363 3:-0.45139 4:-0.527236 5:-0.515471 6:-0.63428 7:-1 8:-1 9:1 
-243 0:0.202703 1:0.092437 2:-0.761062 3:-0.619267 4:-0.69267 5:-0.651086 6:-0.690085 7:-1 8:1 9:-1 
-243 0:0.202703 1:0.361345 2:-0.734513 3:-0.279617 4:-0.297915 5:-0.478604 6:-0.496761 7:1 8:-1 9:-1 
-243 0:0.216216 1:0.159664 2:-0.752212 3:-0.575704 4:-0.648285 5:-0.662936 6:-0.63727 7:-1 8:1 9:-1 
-243 0:0.216216 1:0.176471 2:-0.787611 3:-0.466265 4:-0.496301 5:-0.591837 6:-0.602392 7:-1 8:-1 9:1 
-243 0:0.22973 1:0.159664 2:-0.778761 3:-0.56437 4:-0.626093 5:-0.666886 6:-0.624315 7:-1 8:1 9:-1 
-243 0:0.243243 1:0.12605 2:-0.778761 3:-0.577121 4:-0.65232 5:-0.608953 6:-0.666168 7:-1 8:1 9:-1 
-243 0:0.283784 1:0.260504 2:-0.734513 3:-0.40641 4:-0.470074 5:-0.487821 6:-0.558545 7:1 8:-1 9:-1 
-243 0:0.310811 1:0.260504 2:-0.743363 3:-0.364264 4:-0.37727 5:-0.533904 6:-0.536622 7:-1 8:-1 9:1 
-243 0:0.310811 1:0.310924 2:-0.716814 3:-0.366389 4:-0.436449 5:-0.428571 6:-0.561535 7:-1 8:-1 9:1 
-243 0:0.310811 1:0.294118 2:-0.725664 3:-0.547724 4:-0.549428 5:-0.536537 6:-0.514699 7:1 8:-1 9:-1 
-243 0:0.324324 1:0.344538 2:-0.734513 3:-0.321764 4:-0.387357 5:-0.370639 6:-0.544594 7:-1 8:-1 9:1 
-243 0:0.324324 1:0.327731 2:-0.690265 3:-0.286347 4:-0.400134 5:-0.375905 6:-0.475835 7:1 8:-1 9:-1 
-163.33845620063167 0:0.337838 1:0.361345 2:-0.734513 3:-0.266513 4:-0.273033 5:-0.465438 6:-0.504733 7:-1 8:-1 9:1 
-243 0:0.337838 1:0.310924 2:-0.743363 3:-0.379848 4:-0.447209 5:-0.429888 6:-0.564524 7:1 8:-1 9:-1 
-243 0:0.337838 1:0.294118 2:-0.734513 3:-0.466619 4:-0.540686 5:-0.579987 6:-0.556552 7:-1 8:1 9:-1 
-243 0:0.351351 1:0.361345 2:-0.743363 3:-0.296972 4:-0.37458 5:-0.398288 6:-0.474838 7:1 8:-1 9:-1 
-243 0:0.351351 1:0.277311 2:-0.752212 3:-0.402515 4:-0.462004 5:-0.498354 6:-0.560538 7:-1 8:-1 9:1 
-243 0:0.351351 1:0.394958 2:-0.707965 3:-0.385869 4:-0.416274 5:-0.482554 6:-0.52865 7:1 8:-1 9:-1 
-243 0:0.351351 1:0.344538 2:-0.761062 3:-0.358952 4:-0.430397 5:-0.482554 6:-0.484803 7:-1 8:-1 9:1 
-243 0:0.351351 1:0.310924 2:-0.743363 3:-0.401452 4:-0.443174 5:-0.489138 6:-0.564524 7:-1 8:-1 9:1 
-243 0:0.364865 1:0.344538 2:-0.734513 3:-0.212325 4:-0.360457 5:-0.433838 6:-0.474838 7:-1 8:-1 9:1 
-243 0:0.364865 1:0.344538 2:-0.654867 3:0.315389 4:0.26967 5:0.120474 6:-0.124066 7:-1 8:-1 9:1 
-243 0:0.364865 1:0.310924 2:-0.761062 3:-0.424827 4:-0.493611 5:-0.497038 6:-0.564524 7:-1 8:-1 9:1 
-243 0:0.364865 1:0.327731 2:-0.752212 3:-0.320347 4:-0.34768 5:-0.523371 6:-0.498754 7:-1 8:-1 9:1 
-243 0:0.364865 1:0.327731 2:-0.725664 3:-0.34266 4:-0.483524 5:-0.353522 6:-0.474838 7:1 8:-1 9:-1 
-243 0:0.378378 1:0.361345 2:-0.743363 3:-0.340181 4:-0.35844 5:-0.520737 6:-0.534629 7:-1 8:-1 9:1 
-243 0:0.378378 1:0.378151 2:-0.716814 3:-0.324597 4:-0.383322 5:-0.379855 6:-0.474838 7:-1 8:-1 9:1 
-243 0:0.391892 1:0.394958 2:-0.734513 3:-0.296264 4:-0.354405 5:-0.390388 6:-0.524664 7:-1 8:-1 9:1 
-243 0:0.418919 1:0.411765 2:-0.716814 3:-0.274305 4:-0.349025 5:-0.344305 6:-0.491779 7:1 8:-1 9:-1 
-243 0:0.418919 1:0.378151 2:-0.734513 3:-0.220471 4:-0.267653 5:-0.311389 6:-0.504733 7:1 8:-1 9:-1 
-243 0:0.432432 1:0.394958 2:-0.707965 3:-0.167345 4:-0.179556 5:-0.402238 6:-0.421026 7:1 8:-1 9:-1 
-243 0:0.432432 1:0.411765 2:-0.752212 3:-0.209846 4:-0.254876 5:-0.324556 6:-0.456901 7:-1 8:-1 9:1 
-243 0:0.432432 1:0.411765 2:-0.707965 3:-0.253409 4:-0.418964 5:-0.423305 6:-0.29148 7:1 8:-1 9:-1 
-243 0:0.445946 1:0.394958 2:-0.707965 3:-0.256242 4:-0.33154 5:-0.364055 6:-0.470852 7:-1 8:-1 9:1 
-243 0:0.459459 1:0.378151 2:-0.734513 3:-0.347618 4:-0.380632 5:-0.520737 6:-0.521674 7:1 8:-1 9:-1 
-243 0:0.459459 1:0.411765 2:-0.725664 3:-0.273951 4:-0.400134 5:-0.342989 6:-0.434978 7:1 8:-1 9:-1 
-134.59118459934956 0:0.472973 1:0.394958 2:-0.761062 3:-0.279263 4:-0.286483 5:-0.473338 6:-0.509716 7:-1 8:-1 9:1 
-243 0:0.472973 1:0.327731 2:-0.646018 3:-0.39366 4:-0.425017 5:-0.599737 6:-0.523667 7:-1 8:-1 9:1 
-243 0:0.472973 1:0.428571 2:-0.716814 3:-0.213388 4:-0.243443 5:-0.357472 6:-0.44295 7:1 8:-1 9:-1 
-243 0:0.486486 1:0.445378 2:-0.690265 3:-0.0278024 4:-0.0147949 5:-0.286373 6:-0.341305 7:1 8:-1 9:-1 
-243 0:0.486486 1:0.428571 2:-0.672566 3:-0.146804 4:-0.211836 5:-0.237656 6:-0.432985 7:-1 8:-1 9:1 
-243 0:0.5 1:0.394958 2:-0.725664 3:-0.199221 4:-0.209146 5:-0.445688 6:-0.430992 7:-1 8:-1 9:1 
-243 0:0.513514 1:0.478992 2:-0.973451 3:-0.182221 4:-0.313383 5:-0.190257 6:-0.428002 7:1 8:-1 9:-1 
-243 0:0.554054 1:0.495798 2:-0.663717 3:0.0355941 4:-0.138534 5:-0.108624 6:-0.156951 7:1 8:-1 9:-1 
-243 0:0.594595 1:0.579832 2:-0.716814 3:-0.0359483 4:-0.155346 5:-0.266623 6:-0.325361 7:-1 8:-1 9:1 
-243 0:0.594595 1:0.495798 2:-0.699115 3:-0.0823446 4:-0.189644 5:-0.235023 6:-0.286497 7:-1 8:1 9:-1 
-243 0:0.608108 1:0.512605 2:-0.637168 3:-0.0348858 4:-0.184264 5:-0.20474 6:-0.299452 7:1 8:-1 9:-1 
-243 0:0.662162 1:0.630252 2:-0.725664 3:0.0285107 4:-0.162071 5:-0.183673 6:-0.22571 7:1 8:-1 9:-1 
-243 0:0.662162 1:0.596639 2:-0.699115 3:0.0989906 4:0.0672495 5:-0.0836076 6:-0.266567 7:1 8:-1 9:-1 
-243 0:0.689189 1:0.714286 2:-0.681416 3:0.238888 4:0.202421 5:-0.117841 6:-0.114101 7:-1 8:-1 9:1 
-243 0:0.689189 1:0.579832 2:-0.663717 3:0.164866 4:0.147949 5:-0.19289 6:-0.206776 7:1 8:-1 9:-1 
-243 0:0.702703 1:0.663866 2:-0.699115 3:-0.137949 4:-0.141224 5:-0.379855 6:-0.403089 7:1 8:-1 9:-1 
-243 0:-0.702703 1:0.0756303 2:-0.787611 3:-0.672392 4:-0.737727 5:-0.726136 6:-0.704036 7:-1 8:1 9:-1 
-243 0:-0.0945946 1:-0.0588235 2:-0.80531 3:-0.767664 4:-0.790182 5:-0.815668 6:-0.664175 7:-1 8:1 9:-1 
-243 0:0.027027 1:0.0420168 2:-0.79646 3:-0.696476 4:-0.753867 5:-0.716919 6:-0.754858 7:1 8:-1 9:-1 
-243 0:0.0405405 1:0.0420168 2:-0.778761 3:-0.662476 4:-0.724277 5:-0.726136 6:-0.721973 7:1 8:-1 9:-1 
-243 0:0.0675676 1:0.00840336 2:-0.681416 3:-0.661413 4:-0.72495 5:-0.724819 6:-0.703039 7:-1 8:1 9:-1 
-243 0:0.0810811 1:0.092437 2:-0.787611 3:-0.689038 4:-0.761264 5:-0.768269 6:-0.703039 7:-1 8:1 9:-1 
-243 0:0.0810811 1:0.0252101 2:-0.80531 3:-0.652913 4:-0.717552 5:-0.711652 6:-0.704036 7:-1 8:1 9:-1 
-243 0:0.0945946 1:0.0588235 2:-0.778761 3:-0.616434 4:-0.673167 5:-0.735352 6:-0.674141 7:-1 8:1 9:-1 
-243 0:0.135135 1:0.00840336 2:-0.787611 3:-0.649726 4:-0.713517 5:-0.726136 6:-0.705032 7:-1 8:1 9:-1 
-243 0:0.135135 1:0.092437 2:-0.769912 3:-0.638392 4:-0.707465 5:-0.695853 6:-0.684106 7:-1 8:1 9:-1 
-243 0:0.135135 1:0.142857 2:-0.787611 3:-0.609704 4:-0.700067 5:-0.639236 6:-0.670154 7:-1 8:-1 9:1 
-243 0:0.148649 1:0.226891 2:-0.761062 3:-0.522224 4:-0.595158 5:-0.628703 6:-0.59143 7:-1 8:-1 9:1 
-243 0:0.148649 1:0.0756303 2:-0.743363 3:-0.590933 4:-0.679892 5:-0.639236 6:-0.63428 7:-1 8:1 9:-1 
-243 0:0.148649 1:0.193277 2:-0.752212 3:-0.532849 4:-0.653665 5:-0.573404 6:-0.612357 7:-1 8:1 9:-1 
-243 0:0.148649 1:0.0756303 2:-0.778761 3:-0.598017 4:-0.652993 5:-0.674786 6:-0.690085 7:-1 8:1 9:-1 
-243 0:0.148649 1:0.142857 2:-0.752212 3:-0.561183 4:-0.607935 5:-0.684003 6:-0.61435 7:-1 8:1 9:-1 
-243 0:0.162162 1:0.092437 2:-0.787611 3:-0.580662 4:-0.65232 5:-0.623436 6:-0.644245 7:-1 8:1 9:-1 
-243 0:0.189189 1:0.159664 2:-0.761062 3:-0.508057 4:-0.570948 5:-0.670836 6:-0.65421 7:-1 8:1 9:-1 
-243 0:0.202703 1:0.142857 2:-0.778761 3:-0.531787 4:-0.597176 5:-0.656353 6:-0.623318 7:-1 8:1 9:-1 
-121.45688154318411 0:0.22973 1:0.210084 2:-0.80531 3:-0.594475 4:-0.661735 5:-0.676103 6:-0.626308 7:-1 8:1 9:-1 
-243 0:0.243243 1:0.193277 2:-0.769912 3:-0.495307 4:-0.550773 5:-0.62212 6:-0.589437 7:1 8:-1 9:-1 
-243 0:0.243243 1:0.277311 2:-0.734513 3:-0.493536 4:-0.533961 5:-0.620803 6:-0.616343 7:-1 8:-1 9:1 
-243 0:0.256757 1:0.226891 2:-0.752212 3:-0.486807 4:-0.570276 5:-0.620803 6:-0.546587 7:-1 8:1 9:-1 
-243 0:0.27027 1:0.277311 2:-0.761062 3:-0.454932 4:-0.501009 5:-0.611587 6:-0.550573 7:-1 8:1 9:-1 
-243 0:0.27027 1:0.310924 2:-0.734513 3:-0.434744 4:-0.525891 5:-0.572087 6:-0.590433 7:1 8:-1 9:-1 
-221.35073772730937 0:0.27027 1:0.176471 2:-0.761062 3:-0.580308 4:-0.638198 5:-0.689269 6:-0.63428 7:-1 8:1 9:-1 
-243 0:0.283784 1:0.176471 2:-0.778761 3:-0.540287 4:-0.602555 5:-0.640553 6:-0.604385 7:1 8:-1 9:-1 
-243 0:0.283784 1:0.260504 2:-0.734513 3:-0.381973 4:-0.445864 5:-0.499671 6:-0.508719 7:-1 8:-1 9:1 
-243 0:0.283784 1:0.243697 2:-0.761062 3:-0.483974 4:-0.554136 5:-0.59447 6:-0.574489 7:-1 8:1 9:-1 
-243 0:0.297297 1:0.294118 2:-0.752212 3:-0.384806 4:-0.453934 5:-0.59052 6:-0.494768 7:-1 8:-1 9:1 
-243 0:0.297297 1:0.260504 2:-0.752212 3:-0.458474 4:-0.542703 5:-0.56682 6:-0.544594 7:-1 8:1 9:-1 
-243 0:0.297297 1:0.243697 2:-0.743363 3:-0.441473 4:-0.532616 5:-0.536537 6:-0.554559 7:-1 8:1 9:-1 
-243 0:0.310811 1:0.243697 2:-0.761062 3:-0.420223 4:-0.501681 5:-0.514154 6:-0.532636 7:-1 8:1 9:-1 
-243 0:0.310811 1:0.243697 2:-0.743363 3:-0.514078 4:-0.585071 5:-0.65767 6:-0.5715 7:-1 8:1 9:-1 
-243 0:0.310811 1:0.344538 2:-0.743363 3:-0.311493 4:-0.265636 5:-0.576037 6:-0.534629 7:-1 8:1 9:-1 
-243 0:0.324324 1:0.327731 2:-0.743363 3:-0.399681 4:-0.434432 5:-0.557604 6:-0.554559 7:1 8:-1 9:-1 
-243 0:0.324324 1:0.310924 2:-0.734513 3:-0.437577 4:-0.512441 5:-0.516787 6:-0.566517 7:-1 8:-1 9:1 
-243 0:0.337838 1:0.327731 2:-0.761062 3:-0.438994 4:-0.488231 5:-0.628703 6:-0.514699 7:-1 8:1 9:-1 
-243 0:0.337838 1:0.361345 2:-0.761062 3:-0.307597 4:-0.467384 5:-0.336406 6:-0.473842 7:1 8:-1 9:-1 
-243 0:0.337838 1:0.277311 2:-0.778761 3:-0.366389 4:-0.486214 5:-0.518104 6:-0.454908 7:-1 8:-1 9:1 
-243 0:0.351351 1:0.428571 2:-0.707965 3:-0.237825 4:-0.314055 5:-0.449638 6:-0.393124 7:1 8:-1 9:-1 
-243 0:0.364865 1:0.310924 2:-0.734513 3:-0.39366 4:-0.463349 5:-0.59052 6:-0.498754 7:1 8:-1 9:-1 
-243 0:0.378378 1:0.378151 2:-0.725664 3:-0.353639 4:-0.388702 5:-0.483871 6:-0.534629 7:-1 8:-1 9:1 
-243 0:0.378378 1:0.327731 2:-0.681416 3:-0.435098 4:-0.549428 5:-0.512837 6:-0.530643 7:-1 8:-1 9:1 
-243 0:0.391892 1:0.310924 2:-0.761062 3:-0.454932 4:-0.560188 5:-0.541804 6:-0.544594 7:-1 8:1 9:-1 
-243 0:0.391892 1:0.394958 2:-0.681416 3:-0.160616 4:-0.196369 5:-0.403555 6:-0.385152 7:-1 8:-1 9:1 
-243 0:0.432432 1:0.411765 2:-0.690265 3:-0.239242 4:-0.378615 5:-0.423305 6:-0.335326 7:1 8:-1 9:-1 
-243 0:0.445946 1:0.378151 2:-0.734513 3:-0.321055 4:-0.396772 5:-0.54707 6:-0.432985 7:-1 8:1 9:-1 
-243 0:0.459459 1:0.428571 2:-0.690265 3:-0.209492 4:-0.401479 5:-0.159974 6:-0.405082 7:-1 8:-1 9:1 
-243 0:0.486486 1:0.344538 2:-0.699115 3:-0.234992 4:-0.334902 5:-0.383805 6:-0.375187 7:-1 8:-1 9:1 
-243 0:0.486486 1:0.546218 2:-0.716814 3:-0.106074 4:-0.232683 5:-0.142857 6:-0.363229 7:1 8:-1 9:-1 
-243 0:0.5 1:0.445378 2:-0.699115 3:-0.0660528 4:-0.201748 5:-0.0928242 6:-0.315396 7:1 8:-1 9:-1 
-243 0:0.513514 1:0.495798 2:-0.707965 3:0.0324066 4:-0.0531271 5:-0.304806 6:-0.22571 7:1 8:-1 9:-1 
-243 0:0.554054 1:0.529412 2:-0.663717 3:0.0908447 4:-0.0390047 5:-0.0177749 6:-0.255605 7:-1 8:-1 9:1 
-243 0:0.648649 1:0.647059 2:-0.637168 3:0.268284 4:0.0941493 5:0.0941409 6:-0.0842053 7:-1 8:-1 9:1 
-243 0:0.810811 1:0.731092 2:-0.619469 3:0.59235 4:0.554136 5:0.17314 6:0.109118 7:1 8:-1 9:-1 
-243 0:0.0675676 1:-0.00840336 2:-0.778761 3:-0.695768 4:-0.745797 5:-0.694536 6:-0.768809 7:-1 8:1 9:-1 
-243 0:0.0675676 1:0.00840336 2:-0.787611 3:-0.740393 4:-0.831876 5:-0.781435 6:-0.730942 7:-1 8:1 9:-1 
-243 0:0.108108 1:0.12605 2:-0.849558 3:-0.545599 4:-0.605245 5:-0.730086 6:-0.608371 7:-1 8:-1 9:1 
-243 0:0.108108 1:0.0588235 2:-0.769912 3:-0.628829 4:-0.667115 5:-0.724819 6:-0.693074 7:-1 8:-1 9:1 
-33.868715971641393 0:0.135135 1:0.092437 2:-0.787611 3:-0.595537 4:-0.64425 5:-0.662936 6:-0.715994 7:1 8:-1 9:-1 
-243 0:0.162162 1:0.109244 2:-0.814159 3:-0.610058 4:-0.679892 5:-0.673469 6:-0.693074 7:-1 8:-1 9:1 
-243 0:0.189189 1:0.159664 2:-0.778761 3:-0.602975 4:-0.665098 5:-0.673469 6:-0.664175 7:-1 8:1 9:-1 
-243 0:0.202703 1:0.159664 2:-0.778761 3:-0.605454 4:-0.659718 5:-0.635286 6:-0.706029 7:-1 8:-1 9:1 
-243 0:0.22973 1:0.260504 2:-0.769912 3:-0.502391 4:-0.535978 5:-0.628703 6:-0.626308 7:-1 8:1 9:-1 
-243 0:0.27027 1:0.193277 2:-0.752212 3:-0.47689 4:-0.521856 5:-0.533904 6:-0.598406 7:1 8:-1 9:-1 
-243 0:0.283784 1:0.260504 2:-0.752212 3:-0.40641 4:-0.496974 5:-0.427255 6:-0.615346 7:1 8:-1 9:-1 
-243 0:0.283784 1:0.243697 2:-0.716814 3:-0.439702 4:-0.540013 5:-0.465438 6:-0.574489 7:-1 8:-1 9:1 
-243 0:0.337838 1:0.310924 2:-0.734513 3:-0.30193 4:-0.32347 5:-0.456221 6:-0.506726 7:-1 8:-1 9:1 
-243 0:0.351351 1:0.361345 2:-0.707965 3:-0.352931 4:-0.462677 5:-0.352205 6:-0.527653 7:-1 8:-1 9:1 
-243 0:0.364865 1:0.361345 2:-0.690265 3:-0.1762 4:-0.127102 5:-0.420671 6:-0.394121 7:1 8:-1 9:-1 
-243 0:0.378378 1:0.344538 2:-0.734513 3:-0.35966 4:-0.450572 5:-0.395655 6:-0.537618 7:-1 8:-1 9:1 
-243 0:0.391892 1:0.294118 2:-0.734513 3:-0.383389 4:-0.480834 5:-0.435155 6:-0.514699 7:-1 8:-1 9:1 
-243 0:0.391892 1:0.361345 2:-0.743363 3:-0.299805 4:-0.392065 5:-0.420671 6:-0.454908 7:1 8:-1 9:-1 
-243 0:0.405405 1:0.344538 2:-0.716814 3:-0.264742 4:-0.39341 5:-0.302172 6:-0.428999 7:1 8:-1 9:-1 
-243 0:0.418919 1:0.344538 2:-0.725664 3:-0.332035 4:-0.414257 5:-0.452271 6:-0.504733 7:-1 8:-1 9:1 
-243 0:0.418919 1:0.378151 2:-0.646018 3:-0.109616 4:-0.139879 5:-0.478604 6:-0.29148 7:-1 8:-1 9:1 
-243 0:0.432432 1:0.445378 2:-0.716814 3:-0.150699 4:-0.440484 5:-0.24424 6:-0.24564 7:1 8:-1 9:-1 
-243 0:0.432432 1:0.546218 2:-0.699115 3:-0.0883655 4:-0.194351 5:-0.225806 6:-0.342302 7:1 8:-1 9:-1 
-243 0:0.459459 1:0.411765 2:-0.769912 3:-0.40464 4:-0.526564 5:-0.497038 6:-0.50274 7:-1 8:1 9:-1 
-243 0:0.472973 1:0.277311 2:-0.725664 3:-0.284576 4:-0.359785 5:-0.379855 6:-0.454908 7:1 8:-1 9:-1 
-243 0:0.472973 1:0.428571 2:-0.707965 3:-0.241721 4:-0.353732 5:-0.382488 6:-0.381166 7:-1 8:-1 9:1 
-243 0:0.5 1:0.394958 2:-0.743363 3:-0.221888 4:-0.30195 5:-0.316656 6:-0.452915 7:-1 8:-1 9:1 
